{"learner":{"attributes":{"scikit_learn":"{\"_estimator_type\": \"classifier\"}"},"feature_names":["gender","SeniorCitizen","Partner","Dependents","tenure","PhoneService","MultipleLines","InternetService","OnlineSecurity","OnlineBackup","DeviceProtection","TechSupport","StreamingTV","StreamingMovies","Contract","PaperlessBilling","PaymentMethod","MonthlyCharges","TotalCharges","SentimentScore","EmojiCount","EmojiPositiveCount","EmojiNegativeCount","EmojiSentimentScore","acha","always","and","average","bahut","best","bilkul","bill","bills","but","cave","complaints","connection","could","customer","disappointed","disconnect","disconnects","done","drops","easy","ever","every","expensive","experience","fast","features","fine","frequently","frustrated","frustrating","gets","good","got","great","hai","happy","ho","hota","if","improve","in","internet","is","it","jata","job","ka","kabhi","keep","live","love","loving","mast","month","monthly","much","nahi","network","never","new","no","not","nothing","okay","on","par","pay","payment","praises","process","provider","really","refund","regular","reliable","same","satisfied","service","slow","so","special","speed","support","surely","terrible","the","theek","thoda","time","totally","up","useless","very","wait","when","world","worst","yaar","you","SentimentScore.1","EmojiCount.1","EmojiPositiveCount.1","EmojiNegativeCount.1","EmojiSentimentScore.1"],"feature_types":["int","int","int","int","float","int","int","int","int","int","int","int","int","int","int","int","int","float","float","float","int","int","int","int","float","float","float","float","float","float","float","float","float","float","float","float","float","float","float","float","float","float","float","float","float","float","float","float","float","float","float","float","float","float","float","float","float","float","float","float","float","float","float","float","float","float","float","float","float","float","float","float","float","float","float","float","float","float","float","float","float","float","float","float","float","float","float","float","float","float","float","float","float","float","float","float","float","float","float","float","float","float","float","float","float","float","float","float","float","float","float","float","float","float","float","float","float","float","float","float","float","float","float","float","float","int","int","int","int"],"gradient_booster":{"model":{"gbtree_model_param":{"num_parallel_tree":"1","num_trees":"200"},"iteration_indptr":[0,1,2,3,4,5,6,7,8,9,10,11,12,13,14,15,16,17,18,19,20,21,22,23,24,25,26,27,28,29,30,31,32,33,34,35,36,37,38,39,40,41,42,43,44,45,46,47,48,49,50,51,52,53,54,55,56,57,58,59,60,61,62,63,64,65,66,67,68,69,70,71,72,73,74,75,76,77,78,79,80,81,82,83,84,85,86,87,88,89,90,91,92,93,94,95,96,97,98,99,100,101,102,103,104,105,106,107,108,109,110,111,112,113,114,115,116,117,118,119,120,121,122,123,124,125,126,127,128,129,130,131,132,133,134,135,136,137,138,139,140,141,142,143,144,145,146,147,148,149,150,151,152,153,154,155,156,157,158,159,160,161,162,163,164,165,166,167,168,169,170,171,172,173,174,175,176,177,178,179,180,181,182,183,184,185,186,187,188,189,190,191,192,193,194,195,196,197,198,199,200],"tree_info":[0,0,0,0,0,0,0,0,0,0,0,0,0,0,0,0,0,0,0,0,0,0,0,0,0,0,0,0,0,0,0,0,0,0,0,0,0,0,0,0,0,0,0,0,0,0,0,0,0,0,0,0,0,0,0,0,0,0,0,0,0,0,0,0,0,0,0,0,0,0,0,0,0,0,0,0,0,0,0,0,0,0,0,0,0,0,0,0,0,0,0,0,0,0,0,0,0,0,0,0,0,0,0,0,0,0,0,0,0,0,0,0,0,0,0,0,0,0,0,0,0,0,0,0,0,0,0,0,0,0,0,0,0,0,0,0,0,0,0,0,0,0,0,0,0,0,0,0,0,0,0,0,0,0,0,0,0,0,0,0,0,0,0,0,0,0,0,0,0,0,0,0,0,0,0,0,0,0,0,0,0,0,0,0,0,0,0,0,0,0,0,0,0,0,0,0,0,0,0,0],"trees":[{"base_weights":[5.6120376E-3,7.061862E-1,-1.4486284E0,9.8427516E-1,-5.7079647E-2,-1.6560371E0,-5.597561E-1,1.3266983E0,6.0704696E-1,-2.694215E-1,7.402062E-1,-1.68928E0,-4.7586206E-1,-1.7580645E-1,-1.4541666E-1,8.018141E-1,1.5762188E0,3.2961166E-1,1.1760417E0,3.5589352E-1,-6.045929E-1,1.4063158E0,8.3478265E-2,-1.454485E0,-1.8608434E-1,2.4615385E-2,-1.0742857E-1,1.4081633E-1,-1.0529412E0,8.708625E-1,-7E-2,1.5990232E0,4.1052632E-2,6.059925E-1,-1.6862746E-1,1.2664789E0,3.5555556E-2,4.920502E-1,-5.9E-1,-1.4933333E-1,-9.4666666E-1,1.5621622E-1,4.756757E-2,-1.6595745E-1,6.918919E-2,-1.6261965E0,-1.0389141E0,-1.0797546E-1,9.3061227E-1,-2.909091E-2,-1.2078432E-1,9.9891305E-1,7.272727E-2,1.6128873E0,2.7142858E-2,7.399177E-1,-5.5625E-1,2.506329E-1,-5.585366E-1,1.3107872E0,-0E0,2.7142858E-2,-1.6969698E-2,-4.5882355E-2,6.045249E-1,-7E-2,-1.2857142E-2,8.8275865E-2,-2.8113207E-1,-1.0854772E0,1.2444445E-1,-4.2531645E-1,5.6774195E-2,-1.6561038E0,-2.7142858E-2,-1.1134615E0,5.5172415E-3,-3.534884E-1,5.52E-1,1.1000001E-1,1.9310346E-2,1.06512964E-1,-4.3243244E-3,4.4516128E-2,-6.967742E-2,1.6271698E-1,2.7142858E-2,6.2921345E-3,8.561744E-2,-7.52381E-2,-9.473684E-3,-3.2666665E-2,5.22807E-2,-6.9115646E-2,2.909091E-2,1.3524391E-1,1.8064518E-2,7.0447765E-2,-2.1111112E-2,-4.1846152E-2,6.545454E-2,-1.1486726E-1,-5.1612905E-3,4.1428573E-2,-1.6969698E-2,4.848485E-3,-5.7419356E-2,-1.6870968E-1,-3.3103447E-2,-1.17319584E-1,-1.2E-2,-5.137931E-2,4.6896555E-2,-1.12499995E-2,9.294118E-2],"categories":[],"categories_nodes":[],"categories_segments":[],"categories_sizes":[],"default_left":[0,0,0,0,0,0,0,0,0,0,0,0,0,0,0,0,0,0,0,0,0,0,0,0,0,0,0,0,0,0,0,0,0,0,0,0,0,0,0,0,0,0,0,0,0,0,0,0,0,0,0,0,0,0,0,0,0,0,0,0,0,0,0,0,0,0,0,0,0,0,0,0,0,0,0,0,0,0,0,0,0,0,0,0,0,0,0,0,0,0,0,0,0,0,0,0,0,0,0,0,0,0,0,0,0,0,0,0,0,0,0,0,0,0,0],"id":0,"left_children":[1,3,5,7,9,11,13,15,17,19,21,23,25,27,-1,29,31,33,35,37,39,41,43,45,-1,-1,-1,47,49,51,-1,53,-1,55,57,59,61,63,65,67,69,-1,-1,71,-1,73,75,77,79,-1,-1,81,83,85,-1,87,89,91,93,95,-1,-1,-1,-1,97,-1,-1,-1,99,101,103,105,-1,107,-1,109,-1,111,113,-1,-1,-1,-1,-1,-1,-1,-1,-1,-1,-1,-1,-1,-1,-1,-1,-1,-1,-1,-1,-1,-1,-1,-1,-1,-1,-1,-1,-1,-1,-1,-1,-1,-1,-1,-1],"loss_changes":[1.2566364E3,1.7702048E2,6.999884E1,7.544446E1,3.9011784E1,9.240051E0,2.69739E1,3.615863E1,4.5340927E1,3.8925724E1,2.0597897E1,1.4304199E0,7.4056063E0,1.7902988E1,0E0,1.3888191E1,2.7623901E0,2.8819456E1,9.591339E0,9.619369E0,1.7973873E1,2.685089E-1,4.8749943E0,3.7149963E0,0E0,0E0,0E0,1.0112439E1,4.5131874E-1,1.0563377E1,0E0,1.8289795E0,0E0,2.2444427E1,1.3096459E1,4.980255E0,7.3906785E-1,7.514267E0,6.471419E-2,8.584123E0,1.0672436E1,0E0,0E0,5.4234886E0,0E0,2.030548E0,4.857826E0,7.363476E0,5.513649E-1,0E0,0E0,6.6351624E0,6.732375E0,1.9089355E0,0E0,9.255302E0,1.0784478E0,6.9092255E0,5.463068E0,2.9059143E0,0E0,0E0,0E0,0E0,5.148489E0,0E0,0E0,0E0,7.882293E0,3.579277E0,1.2647821E0,1.5570583E0,0E0,1.5170288E0,0E0,2.393425E0,0E0,5.2202325E0,3.634803E0,0E0,0E0,0E0,0E0,0E0,0E0,0E0,0E0,0E0,0E0,0E0,0E0,0E0,0E0,0E0,0E0,0E0,0E0,0E0,0E0,0E0,0E0,0E0,0E0,0E0,0E0,0E0,0E0,0E0,0E0,0E0,0E0,0E0,0E0,0E0,0E0],"parents":[2147483647,0,0,1,1,2,2,3,3,4,4,5,5,6,6,7,7,8,8,9,9,10,10,11,11,12,12,13,13,15,15,16,16,17,17,18,18,19,19,20,20,21,21,22,22,23,23,27,27,28,28,29,29,31,31,33,33,34,34,35,35,36,36,37,37,38,38,39,39,40,40,43,43,45,45,46,46,47,47,48,48,51,51,52,52,53,53,55,55,56,56,57,57,58,58,59,59,64,64,68,68,69,69,70,70,71,71,73,73,75,75,77,77,78,78],"right_children":[2,4,6,8,10,12,14,16,18,20,22,24,26,28,-1,30,32,34,36,38,40,42,44,46,-1,-1,-1,48,50,52,-1,54,-1,56,58,60,62,64,66,68,70,-1,-1,72,-1,74,76,78,80,-1,-1,82,84,86,-1,88,90,92,94,96,-1,-1,-1,-1,98,-1,-1,-1,100,102,104,106,-1,108,-1,110,-1,112,114,-1,-1,-1,-1,-1,-1,-1,-1,-1,-1,-1,-1,-1,-1,-1,-1,-1,-1,-1,-1,-1,-1,-1,-1,-1,-1,-1,-1,-1,-1,-1,-1,-1,-1,-1,-1],"split_conditions":[1E0,1E0,1.1701611E0,-8.702409E-1,8.803638E-1,2.650855E-3,1.5729809E0,1.4751132E-1,1.0049986E0,-1.1552835E0,2.4956103E-1,2E0,2E0,1E0,-1.4541666E-1,4.8321268E-1,4.008492E-1,1E0,1E0,7.5E-1,1E0,1E0,2.8639464E-3,2E0,-1.8608434E-1,2.4615385E-2,-1.0742857E-1,2.6870728E-3,2E0,-8.581558E-1,-7E-2,4.987186E-1,4.1052632E-2,3E0,-2.1871513E-1,3.3690476E-1,-8.766251E-3,-1.5059767E0,1E0,2E0,5.078922E-3,1.5621622E-1,4.756757E-2,3.3886225E-3,6.918919E-2,1.8393176E-4,2.832331E-3,8.78199E-3,1E0,-2.909091E-2,-1.2078432E-1,1.7164175E-1,2.0604362E-1,2.8656626E-1,2.7142858E-2,-4.6402997E-1,1.9736524E-1,1E0,9.518211E-1,3.915711E-1,-0E0,2.7142858E-2,-1.6969698E-2,-4.5882355E-2,3.0049488E-1,-7E-2,-1.2857142E-2,8.8275865E-2,3.8734754E-3,1.8393176E-4,-6.1696064E-1,2E0,5.6774195E-2,1.4358127E-2,-2.7142858E-2,1E0,5.5172415E-3,2.538385E-3,1E0,1.1000001E-1,1.9310346E-2,1.06512964E-1,-4.3243244E-3,4.4516128E-2,-6.967742E-2,1.6271698E-1,2.7142858E-2,6.2921345E-3,8.561744E-2,-7.52381E-2,-9.473684E-3,-3.2666665E-2,5.22807E-2,-6.9115646E-2,2.909091E-2,1.3524391E-1,1.8064518E-2,7.0447765E-2,-2.1111112E-2,-4.1846152E-2,6.545454E-2,-1.1486726E-1,-5.1612905E-3,4.1428573E-2,-1.6969698E-2,4.848485E-3,-5.7419356E-2,-1.6870968E-1,-3.3103447E-2,-1.17319584E-1,-1.2E-2,-5.137931E-2,4.6896555E-2,-1.12499995E-2,9.294118E-2],"split_indices":[14,8,17,4,17,87,4,17,17,4,18,14,14,3,0,50,35,2,3,19,9,0,110,13,0,0,0,68,9,18,0,24,0,16,4,110,4,17,20,8,107,0,0,103,0,46,31,102,16,0,0,103,19,30,0,17,17,7,17,67,0,0,0,0,110,0,0,0,123,46,4,13,0,30,0,22,0,104,0,0,0,0,0,0,0,0,0,0,0,0,0,0,0,0,0,0,0,0,0,0,0,0,0,0,0,0,0,0,0,0,0,0,0,0,0],"split_type":[0,0,0,0,0,0,0,0,0,0,0,0,0,0,0,0,0,0,0,0,0,0,0,0,0,0,0,0,0,0,0,0,0,0,0,0,0,0,0,0,0,0,0,0,0,0,0,0,0,0,0,0,0,0,0,0,0,0,0,0,0,0,0,0,0,0,0,0,0,0,0,0,0,0,0,0,0,0,0,0,0,0,0,0,0,0,0,0,0,0,0,0,0,0,0,0,0,0,0,0,0,0,0,0,0,0,0,0,0,0,0,0,0,0,0],"sum_hessian":[1.2255E3,8.285E2,3.97E2,6.065E2,2.22E2,3.19E2,7.8E1,3.125E2,2.94E2,1.775E2,4.45E1,3.085E2,1.05E1,5.8E1,2E1,1.0625E2,2.0625E2,2.02E2,9.2E1,6.175E1,1.1575E2,1.975E1,2.475E1,1.465E2,1.62E2,5.75E0,4.75E0,4.5E1,1.3E1,1.0325E2,3E0,2.0075E2,5.5E0,1.295E2,7.25E1,8.475E1,7.25E0,5.575E1,6E0,5.225E1,6.35E1,1.45E1,5.25E0,1.95E1,5.25E0,9.525E1,5.125E1,3.675E1,8.25E0,4.25E0,8.75E0,8.8E1,1.525E1,1.9775E2,3E0,1.175E2,1.2E1,3.55E1,3.7E1,8.175E1,3E0,3E0,4.25E0,4.5E0,5.125E1,3E0,3E0,3.25E0,4.9E1,5.625E1,7.25E0,1.575E1,3.75E0,9.225E1,3E0,4.8E1,3.25E0,2.825E1,8.5E0,5E0,3.25E0,8.275E1,5.25E0,1.15E1,3.75E0,1.9475E2,3E0,1.825E1,9.925E1,6.5E0,5.5E0,1.1E1,2.45E1,3.275E1,4.25E0,7.8E1,3.75E0,4.625E1,5E0,4.475E1,4.25E0,5.25E1,3.75E0,3E0,4.25E0,4.25E0,1.15E1,8.9E1,3.25E0,4.45E1,3.5E0,2.5E1,3.25E0,4E0,4.5E0],"tree_param":{"num_deleted":"0","num_feature":"129","num_nodes":"115","size_leaf_vector":"1"}},{"base_weights":[1.7325103E-2,6.664431E-1,-1.3344544E0,8.697445E-2,9.762941E-1,-1.540894E0,-7.7360433E-1,6.737086E-1,-3.22477E-1,1.303391E0,6.2349737E-1,-1.5648329E0,-6.0831416E-1,-2.686562E-1,-1.3544582E0,-6.305056E-2,7.506584E-1,-4.896446E-2,-9.550666E-1,1.3666743E0,3.708639E-1,7.6864403E-1,6.341971E-2,-1.5899732E0,-6.5577507E-1,-0E0,-9.1537625E-2,-5.2402902E-2,-9.35227E-1,-2.488173E-2,-1.4037453E0,8.0393195E-1,-3.7679054E-2,2.0111717E-1,-9.503941E-1,-1.0434927E0,-1.4352264E-3,1.4084713E0,4.251401E-1,6.1650133E-1,-2.3915146E-2,8.2427835E-1,-4.4075543E-1,-2.8361732E-1,4.6372378E-1,-1.606239E-1,-6.0751E-1,-3.7242766E-4,-1.0420418E-1,2.7722964E-1,-5.5264974E-1,-1.6868724E-2,-1.0673312E-1,-1.4523119E-1,-3.00154E-2,8.973768E-1,1.1697857E-1,4.597666E-1,-4.8678702E-1,1.8033311E-3,-1.1138458E0,-3.8729396E-1,-1.2665638E0,1.4264431E0,5.432622E-3,-5.596592E-3,6.522971E-2,-3.347791E-3,7.896279E-2,8.861456E-1,-3.4153843E-1,-6.539425E-2,4.611044E-3,6.176069E-2,-6.436788E-1,-3.7211514E-1,7.66173E-1,-3.6420494E-3,-8.399821E-2,5.2575395E-2,8.498793E-2,-9.1344915E-2,-1.8320425E-1,9.547307E-2,-2.2985794E-2,4.8056465E-2,-3.7366565E-2,7.216228E-2,-5.6719906E-3,-7.1150005E-2,8.403327E-3,-2.944987E-2,-1.2211088E-1,-7.713201E-2,1.1702827E-2,-1.326276E-1,-2.9629767E-2,1.4439756E-1,1.6985526E-2,9.372985E-2,-3.448719E-2,1.034935E-2,-5.8940858E-2,3.2225378E-2,-3.1810936E-2,9.806207E-3,-1.15455925E-1,4.595376E-3,-5.985961E-2,1.09568916E-1,-3.969598E-2,-4.542136E-2,3.478559E-2,2.1468526E-2,-3.5009127E-2],"categories":[],"categories_nodes":[],"categories_segments":[],"categories_sizes":[],"default_left":[0,0,0,0,0,0,0,0,0,0,0,0,0,0,0,0,0,0,0,0,0,0,0,0,0,0,0,0,0,0,0,0,0,0,0,0,0,0,0,0,0,0,0,0,0,0,0,0,0,0,0,0,0,0,0,0,0,0,0,0,0,0,0,0,0,0,0,0,0,0,0,0,0,0,0,0,0,0,0,0,0,0,0,0,0,0,0,0,0,0,0,0,0,0,0,0,0,0,0,0,0,0,0,0,0,0,0,0,0,0,0,0,0,0,0],"id":1,"left_children":[1,3,5,7,9,11,13,15,17,19,21,23,25,27,29,-1,31,33,35,37,39,41,43,45,47,-1,-1,49,51,-1,53,55,-1,57,59,61,-1,63,65,67,-1,69,71,73,75,-1,77,-1,-1,79,81,-1,-1,-1,-1,83,85,87,89,-1,91,93,95,97,-1,-1,-1,-1,-1,99,101,-1,-1,103,105,107,109,-1,-1,111,-1,-1,113,-1,-1,-1,-1,-1,-1,-1,-1,-1,-1,-1,-1,-1,-1,-1,-1,-1,-1,-1,-1,-1,-1,-1,-1,-1,-1,-1,-1,-1,-1,-1,-1],"loss_changes":[1.0930773E3,1.5066663E2,4.179016E1,7.243215E1,5.9782166E1,2.4767456E0,3.2666756E1,1.4326702E1,3.0504417E1,1.4351074E1,2.1785133E1,2.0333862E0,2.5554957E0,9.451593E0,1.3409882E0,0E0,8.388275E0,2.9823675E1,4.2757874E0,7.6953735E0,4.1360044E0,1.5960564E1,8.929438E0,2.0300293E-1,3.5281148E0,0E0,0E0,9.776049E0,7.978668E-1,0E0,7.639923E-1,6.846367E0,0E0,1.9372627E1,4.734209E0,4.9942513E0,0E0,5.580841E0,2.055657E0,2.1987405E0,0E0,1.619934E1,1.425318E0,4.529885E0,8.683173E0,0E0,1.2429023E0,0E0,0E0,4.3545485E0,2.348424E0,0E0,0E0,0E0,0E0,7.4351273E0,4.0240293E0,1.0731384E1,4.1780524E0,0E0,5.8205223E-1,3.9550006E0,2.608528E-1,4.2476196E0,0E0,0E0,0E0,0E0,0E0,1.3808868E1,1.7531132E0,0E0,0E0,2.5091505E0,7.178959E0,1.1586268E0,1.0697771E1,0E0,0E0,5.1409383E0,0E0,0E0,1.4252877E0,0E0,0E0,0E0,0E0,0E0,0E0,0E0,0E0,0E0,0E0,0E0,0E0,0E0,0E0,0E0,0E0,0E0,0E0,0E0,0E0,0E0,0E0,0E0,0E0,0E0,0E0,0E0,0E0,0E0,0E0,0E0,0E0],"parents":[2147483647,0,0,1,1,2,2,3,3,4,4,5,5,6,6,7,7,8,8,9,9,10,10,11,11,12,12,13,13,14,14,16,16,17,17,18,18,19,19,20,20,21,21,22,22,23,23,24,24,27,27,28,28,30,30,31,31,33,33,34,34,35,35,37,37,38,38,39,39,41,41,42,42,43,43,44,44,46,46,49,49,50,50,55,55,56,56,57,57,58,58,60,60,61,61,62,62,63,63,69,69,70,70,73,73,74,74,75,75,76,76,79,79,82,82],"right_children":[2,4,6,8,10,12,14,16,18,20,22,24,26,28,30,-1,32,34,36,38,40,42,44,46,48,-1,-1,50,52,-1,54,56,-1,58,60,62,-1,64,66,68,-1,70,72,74,76,-1,78,-1,-1,80,82,-1,-1,-1,-1,84,86,88,90,-1,92,94,96,98,-1,-1,-1,-1,-1,100,102,-1,-1,104,106,108,110,-1,-1,112,-1,-1,114,-1,-1,-1,-1,-1,-1,-1,-1,-1,-1,-1,-1,-1,-1,-1,-1,-1,-1,-1,-1,-1,-1,-1,-1,-1,-1,-1,-1,-1,-1,-1,-1],"split_conditions":[1E0,5.445069E-2,9.518211E-1,-1.1552835E0,-7.4807984E-1,2.0257054E-2,2E0,-1.5059767E0,3E0,1E0,2E0,2.650855E-3,2E0,1E0,1.0515289E0,-6.305056E-2,4.48168E-1,1E0,3.203718E-3,3.3229512E-1,-6.411164E-1,3.535048E-1,1.424812E-2,4.518999E-3,2E0,-0E0,-9.1537625E-2,2E0,1E0,-2.488173E-2,2.970979E-4,6.931281E-1,-3.7679054E-2,-2.594355E-1,-4.9059352E-1,-1.0331224E0,-1.4352264E-3,3.6667332E-1,4.6159095E-1,2.605135E-1,-2.3915146E-2,3.3690476E-1,-8.766251E-3,1E0,8.222009E-1,-1.606239E-1,-4.1848612E-1,-3.7242766E-4,-1.0420418E-1,2.6870728E-3,1.2742097E0,-1.6868724E-2,-1.0673312E-1,-1.4523119E-1,-3.00154E-2,3.371578E-1,1E0,1E0,-3.2277724E-1,1.8033311E-3,-1.0303859E0,-9.421694E-1,4.5738975E-3,1E0,5.432622E-3,-5.596592E-3,6.522971E-2,-3.347791E-3,7.896279E-2,4.0614784E-1,1.4776814E-1,-6.539425E-2,4.611044E-3,1E0,2E0,6.931281E-1,7.99294E-1,-3.6420494E-3,-8.399821E-2,1.299095E0,8.498793E-2,-9.1344915E-2,1.3905355E0,9.547307E-2,-2.2985794E-2,4.8056465E-2,-3.7366565E-2,7.216228E-2,-5.6719906E-3,-7.1150005E-2,8.403327E-3,-2.944987E-2,-1.2211088E-1,-7.713201E-2,1.1702827E-2,-1.326276E-1,-2.9629767E-2,1.4439756E-1,1.6985526E-2,9.372985E-2,-3.448719E-2,1.034935E-2,-5.8940858E-2,3.2225378E-2,-3.1810936E-2,9.806207E-3,-1.15455925E-1,4.595376E-3,-5.985961E-2,1.09568916E-1,-3.969598E-2,-4.542136E-2,3.478559E-2,2.1468526E-2,-3.5009127E-2],"split_indices":[14,17,17,4,4,25,14,17,16,3,11,87,14,3,17,0,43,3,106,110,18,68,19,80,14,0,0,8,9,0,121,19,0,4,19,4,0,32,17,17,0,110,4,9,17,0,18,0,0,68,17,0,0,0,0,110,8,9,17,0,4,18,38,19,0,0,0,0,0,38,4,0,0,0,6,19,4,0,0,18,0,0,17,0,0,0,0,0,0,0,0,0,0,0,0,0,0,0,0,0,0,0,0,0,0,0,0,0,0,0,0,0,0,0,0],"split_type":[0,0,0,0,0,0,0,0,0,0,0,0,0,0,0,0,0,0,0,0,0,0,0,0,0,0,0,0,0,0,0,0,0,0,0,0,0,0,0,0,0,0,0,0,0,0,0,0,0,0,0,0,0,0,0,0,0,0,0,0,0,0,0,0,0,0,0,0,0,0,0,0,0,0,0,0,0,0,0,0,0,0,0,0,0,0,0,0,0,0,0,0,0,0,0,0,0,0,0,0,0,0,0,0,0,0,0,0,0,0,0,0,0,0,0],"sum_hessian":[1.2377445E3,8.376236E2,4.001209E2,2.9373666E2,5.4388696E2,2.8722873E2,1.1289219E2,1.1977073E2,1.7396593E2,2.764832E2,2.6740375E2,2.772917E2,9.937027E0,6.361372E1,4.9278465E1,4.997316E0,1.1477341E2,1.2457232E2,4.93936E1,2.570685E2,1.9414701E1,2.1104291E2,5.6360832E1,2.6680695E2,1.0484769E1,4.732214E0,5.204813E0,5.1402023E1,1.2211698E1,3.222027E0,4.605644E1,1.1077559E2,3.9978201E0,9.986392E1,2.4708399E1,4.465295E1,4.740651E0,2.4414055E2,1.2927956E1,1.3927754E1,5.486947E0,2.0305833E2,7.984566E0,3.0679722E1,2.5681108E1,2.5986322E2,6.9437127E0,5.499167E0,4.985602E0,3.1939302E1,1.946272E1,3.2453156E0,8.966382E0,4.281757E1,3.2388675E0,9.630465E1,1.44709425E1,7.364545E1,2.6218481E1,3.993627E0,2.0714771E1,1.4218892E1,3.0434057E1,2.406592E2,3.481346E0,4.971937E0,7.956019E0,3.486621E0,1.04411335E1,1.9381819E2,9.240143E0,4.7412214E0,3.243345E0,1.720883E1,1.3470891E1,6.490947E0,1.9190163E1,3.4717815E0,3.4719312E0,2.6201967E1,5.737335E0,6.729798E0,1.27329235E1,9.23088E1,3.995846E0,8.475937E0,5.9950056E0,4.794332E1,2.570212E1,1.8230942E1,7.9875393E0,4.240162E0,1.647461E1,6.982522E0,7.23637E0,2.7189985E1,3.2440736E0,2.3668085E2,3.978352E0,1.8708002E2,6.738186E0,3.9945934E0,5.245549E0,1.0724515E1,6.4843154E0,6.7325125E0,6.7383785E0,3.2459629E0,3.244984E0,1.5201486E1,3.988677E0,8.728917E0,1.747305E1,3.2468884E0,9.486035E0],"tree_param":{"num_deleted":"0","num_feature":"129","num_nodes":"115","size_leaf_vector":"1"}},{"base_weights":[-4.691717E-2,5.688687E-1,-1.2733114E0,6.968754E-2,8.642491E-1,-1.4442356E0,-7.8136647E-1,5.814993E-1,-3.0582464E-1,1.2408563E0,5.655526E-1,-1.4644461E0,-4.9319658E-1,-4.1802946E-1,-1.1781344E0,8.843534E-1,1.8261555E-1,-8.274804E-1,-1.2046683E-1,1.277409E0,9.824956E-2,6.932109E-1,-1.6720554E-1,-1.489169E-1,-6.138155E-1,-8.441689E-2,1.4516179E-2,-5.660367E-1,3.6078376E-1,-1.2899622E0,-1.3762208E-2,1.0543451E0,3.5207582E-1,-2.4683727E-2,9.018658E-1,-9.7992525E-2,1.5512006E-2,1.2336351E-1,-6.558554E-1,1.3253754E0,3.3220875E-1,-1.7910143E-2,3.0570967E-2,7.752209E-1,-3.8335633E-2,1.7548412E-1,-5.517983E-1,8.070891E-3,-1.0517793E-1,-6.510496E-1,2.2026403E-2,8.220308E-2,-2.0000733E-2,-1.3446845E-1,-2.2630038E-2,1.1318957E0,-1.9119642E-3,6.650772E-2,4.8892528E-1,2.8689483E-1,-3.899517E-1,1.1269795E-1,1.1746441E-2,2.6435157E-2,-2.2843802E-2,3.0746874E-1,-4.50266E-1,-9.868522E-1,-2.5365967E-1,1.3557229E0,1.7386839E-2,-6.6555925E-2,6.4339906E-2,3.046891E-1,9.552531E-1,-7.4971154E-2,3.5446495E-1,-3.0460775E-1,5.2072567E-1,-8.760278E-2,-1.8662987E-2,-7.484472E-1,1.7376525E-2,1.187711E-1,1.2593985E-2,3.0079288E-2,-1.4159261E-2,6.367966E-2,-0E0,4.6862084E-2,-5.0451975E-2,8.628454E-3,-6.6828296E-2,4.3761406E-2,-6.2514715E-2,-6.135113E-2,-0E0,-1.1564129E-1,-2.5272042E-2,5.649556E-2,-5.0366726E-2,1.3748524E-1,6.43542E-3,2.224742E-4,-1.1234566E-2,5.2034736E-2,-4.8055216E-3,1.0016984E-1,-4.3303844E-2,5.9548914E-2,-2.3154324E-2,9.894966E-4,-5.760452E-2,7.982644E-2,-6.7975856E-3,-2.6214963E-2,3.0510455E-2,-2.8808499E-2,-9.076184E-2],"categories":[],"categories_nodes":[],"categories_segments":[],"categories_sizes":[],"default_left":[0,0,0,0,0,0,0,0,0,0,0,0,0,0,0,0,0,0,0,0,0,0,0,0,0,0,0,0,0,0,0,0,0,0,0,0,0,0,0,0,0,0,0,0,0,0,0,0,0,0,0,0,0,0,0,0,0,0,0,0,0,0,0,0,0,0,0,0,0,0,0,0,0,0,0,0,0,0,0,0,0,0,0,0,0,0,0,0,0,0,0,0,0,0,0,0,0,0,0,0,0,0,0,0,0,0,0,0,0,0,0,0,0,0,0,0,0,0,0],"id":2,"left_children":[1,3,5,7,9,11,13,15,17,19,21,23,25,27,29,31,33,35,37,39,41,43,45,-1,47,-1,-1,49,51,53,-1,55,57,59,61,-1,63,65,67,69,71,-1,-1,73,75,77,79,-1,-1,81,-1,-1,-1,-1,-1,83,-1,85,87,89,91,-1,-1,-1,-1,93,95,97,99,101,-1,103,-1,105,107,-1,109,111,113,-1,115,117,-1,-1,-1,-1,-1,-1,-1,-1,-1,-1,-1,-1,-1,-1,-1,-1,-1,-1,-1,-1,-1,-1,-1,-1,-1,-1,-1,-1,-1,-1,-1,-1,-1,-1,-1,-1,-1],"loss_changes":[9.3139844E2,1.20743225E2,2.9926697E1,6.0268745E1,5.4991333E1,2.7020874E0,1.4472443E1,1.5262615E1,1.702425E1,8.735718E0,2.810521E1,2.2884521E0,3.3380387E0,8.496592E0,5.2812805E0,5.086006E0,9.4804535E0,6.155327E0,1.8456572E1,7.915802E0,8.8627344E-1,1.5315239E1,6.60162E0,0E0,5.055667E0,0E0,0E0,4.4603024E0,4.0684996E0,1.3635559E0,0E0,4.699192E0,7.5630474E-1,6.401379E0,1.8490801E0,0E0,9.119843E-1,1.0930919E1,4.7453423E0,6.074066E0,2.204979E0,0E0,0E0,1.7936707E1,9.233405E0,5.243994E0,3.852889E0,0E0,0E0,4.836691E0,0E0,0E0,0E0,0E0,0E0,2.110382E0,0E0,8.042426E-1,1.0573983E0,5.3056335E0,3.7197912E0,0E0,0E0,0E0,0E0,1.0421198E1,1.8823242E0,1.5120983E0,6.3362756E0,4.42395E0,0E0,4.4967443E-2,0E0,5.3838634E0,1.2246292E1,0E0,3.6065724E0,1.2729673E0,3.1818442E0,0E0,1.3382322E0,2.372221E0,0E0,0E0,0E0,0E0,0E0,0E0,0E0,0E0,0E0,0E0,0E0,0E0,0E0,0E0,0E0,0E0,0E0,0E0,0E0,0E0,0E0,0E0,0E0,0E0,0E0,0E0,0E0,0E0,0E0,0E0,0E0,0E0,0E0,0E0,0E0,0E0,0E0],"parents":[2147483647,0,0,1,1,2,2,3,3,4,4,5,5,6,6,7,7,8,8,9,9,10,10,11,11,12,12,13,13,14,14,15,15,16,16,17,17,18,18,19,19,20,20,21,21,22,22,24,24,27,27,28,28,29,29,31,31,32,32,33,33,34,34,36,36,37,37,38,38,39,39,40,40,43,43,44,44,45,45,46,46,49,49,55,55,57,57,58,58,59,59,60,60,65,65,66,66,67,67,68,68,69,69,71,71,73,73,74,74,76,76,77,77,78,78,80,80,81,81],"right_children":[2,4,6,8,10,12,14,16,18,20,22,24,26,28,30,32,34,36,38,40,42,44,46,-1,48,-1,-1,50,52,54,-1,56,58,60,62,-1,64,66,68,70,72,-1,-1,74,76,78,80,-1,-1,82,-1,-1,-1,-1,-1,84,-1,86,88,90,92,-1,-1,-1,-1,94,96,98,100,102,-1,104,-1,106,108,-1,110,112,114,-1,116,118,-1,-1,-1,-1,-1,-1,-1,-1,-1,-1,-1,-1,-1,-1,-1,-1,-1,-1,-1,-1,-1,-1,-1,-1,-1,-1,-1,-1,-1,-1,-1,-1,-1,-1,-1,-1,-1],"split_conditions":[1E0,1.4751132E-1,9.628326E-1,-1.1552835E0,-8.702409E-1,4.518999E-3,2E0,1E0,-1.3015757E0,2.6989618E-1,1E0,2.650855E-3,2E0,2.6870728E-3,2.8639464E-3,3E0,3.3381372E-3,4.5738975E-3,-4.515971E-1,2E0,3.626736E-1,9.621754E-1,2E0,-1.489169E-1,2E0,-8.441689E-2,1.4516179E-2,2.60108E-4,3.1456557E-1,3.8068748E-1,-1.3762208E-2,5.69521E-2,1E0,1E0,2.577453E-1,-9.7992525E-2,-1.4810498E0,3E0,-3.32748E-1,5.073707E-1,-7.510087E-1,-1.7910143E-2,3.0570967E-2,1E0,1.1263098E0,7.0753694E-1,1E0,8.070891E-3,-1.0517793E-1,1.000331E-3,2.2026403E-2,8.220308E-2,-2.0000733E-2,-1.3446845E-1,-2.2630038E-2,3.6460915E-1,-1.9119642E-3,-6.651074E-1,3.065364E-1,5.8681864E-1,-9.985104E-1,1.1269795E-1,1.1746441E-2,2.6435157E-2,-2.2843802E-2,3.195139E-1,2E0,1E0,1E0,4.9236938E-1,1.7386839E-2,1E0,6.4339906E-2,1E0,3.763367E-1,-7.4971154E-2,1E0,7.319082E-2,6.6327415E-2,-8.760278E-2,1.1155745E0,2E0,1.7376525E-2,1.187711E-1,1.2593985E-2,3.0079288E-2,-1.4159261E-2,6.367966E-2,-0E0,4.6862084E-2,-5.0451975E-2,8.628454E-3,-6.6828296E-2,4.3761406E-2,-6.2514715E-2,-6.135113E-2,-0E0,-1.1564129E-1,-2.5272042E-2,5.649556E-2,-5.0366726E-2,1.3748524E-1,6.43542E-3,2.224742E-4,-1.1234566E-2,5.2034736E-2,-4.8055216E-3,1.0016984E-1,-4.3303844E-2,5.9548914E-2,-2.3154324E-2,9.894966E-4,-5.760452E-2,7.982644E-2,-6.7975856E-3,-2.6214963E-2,3.0510455E-2,-2.8808499E-2,-9.076184E-2],"split_indices":[14,17,17,4,4,80,14,11,17,103,3,87,6,68,110,16,59,38,18,8,17,4,9,0,14,0,0,45,68,38,0,103,15,0,59,0,17,16,17,45,18,0,0,6,17,17,10,0,0,49,0,0,0,0,0,67,0,17,19,19,18,0,0,0,0,102,9,10,5,87,0,0,0,0,104,0,11,19,4,0,17,10,0,0,0,0,0,0,0,0,0,0,0,0,0,0,0,0,0,0,0,0,0,0,0,0,0,0,0,0,0,0,0,0,0,0,0,0,0],"split_type":[0,0,0,0,0,0,0,0,0,0,0,0,0,0,0,0,0,0,0,0,0,0,0,0,0,0,0,0,0,0,0,0,0,0,0,0,0,0,0,0,0,0,0,0,0,0,0,0,0,0,0,0,0,0,0,0,0,0,0,0,0,0,0,0,0,0,0,0,0,0,0,0,0,0,0,0,0,0,0,0,0,0,0,0,0,0,0,0,0,0,0,0,0,0,0,0,0,0,0,0,0,0,0,0,0,0,0,0,0,0,0,0,0,0,0,0,0,0,0],"sum_hessian":[1.22539E3,8.171521E2,4.0823788E2,3.057422E2,5.1140988E2,2.9707434E2,1.1116354E2,1.2857307E2,1.7716911E2,2.2047517E2,2.909347E2,2.8867523E2,8.3991165E0,6.2445755E1,4.871779E1,7.017412E1,5.8398968E1,4.267413E1,1.34495E2,2.1309859E2,7.3765864E0,2.4806937E2,4.2865334E1,2.7748993E2,1.11852865E1,4.6884274E0,3.710689E0,5.3499775E1,8.945978E0,4.3037346E1,5.6804395E0,5.0071724E1,2.010239E1,4.8223797E1,1.0175168E1,3.568908E1,6.985052E0,9.439604E1,4.0098946E1,2.0117484E2,1.1923759E1,3.184296E0,4.1922903E0,2.229711E2,2.5098267E1,2.3680115E1,1.9185219E1,5.4991918E0,5.6860943E0,4.901555E1,4.484226E0,3.9840648E0,4.9619136E0,3.983702E1,3.2003264E0,4.658193E1,3.4897962E0,8.6749E0,1.142749E1,2.6339947E1,2.188385E1,6.4497337E0,3.725434E0,3.4951982E0,3.4898536E0,7.299784E1,2.1398203E1,1.8670403E1,2.1428545E1,1.9523332E2,5.941513E0,6.4639254E0,5.459834E0,6.4837395E1,1.5813371E2,7.726093E0,1.7372173E1,9.981293E0,1.3698823E1,1.0213562E1,8.971657E0,4.427854E1,4.7370057E0,4.335429E1,3.2276368E0,3.4686475E0,5.2062526E0,7.7020783E0,3.7254117E0,2.2850752E1,3.4891963E0,8.9576435E0,1.2926208E1,6.6015724E1,6.982114E0,1.4681228E1,6.7169757E0,1.3187464E1,5.4829383E0,3.7408016E0,1.7687744E1,1.9205235E2,3.1809654E0,3.2315621E0,3.2323632E0,3.9233833E1,2.5603565E1,1.5416211E2,3.9715915E0,1.2384416E1,4.987758E0,6.238634E0,3.7426581E0,8.457546E0,5.2412763E0,5.731475E0,3.2401824E0,1.4425202E1,2.985334E1],"tree_param":{"num_deleted":"0","num_feature":"129","num_nodes":"119","size_leaf_vector":"1"}},{"base_weights":[-8.926799E-3,5.5126566E-1,-1.1580766E0,7.567069E-1,-3.6537513E-2,-1.322159E0,-5.7816654E-1,8.5838866E-1,-4.2402692E-2,1.3806707E-1,-5.9807867E-1,-8.784345E-1,-1.4424211E-1,-2.1000345E-1,-1.0136094E0,9.4806844E-1,2.4183564E-1,5.37059E-1,-3.2109034E-1,-3.4437442E-4,6.678777E-1,1.5873876E-1,-7.875882E-1,-9.5866114E-1,3.1296056E-2,1.6809857E-2,-8.7994987E-1,-1.139597E0,-4.948943E-3,9.819799E-1,-5.8188528E-2,3.574664E-1,-6.5845996E-2,-1.0457566E-1,8.1338984E-1,-9.492593E-2,-1.02631375E-1,8.461407E-2,-7.2474405E-2,1.1699665E0,4.497414E-2,5.9959717E-2,-3.8322426E-2,-8.9543974E-1,3.1853423E-3,-5.81726E-1,-1.23885594E-1,2.8340542E-1,-6.419066E-1,-1.6314914E-2,-1.0351644E-1,-4.0915873E-2,-1.2201603E-1,1.0141011E0,-1.2417854E-1,-4.771607E-2,2.702574E-1,-6.7616716E-2,6.43824E-1,-4.332562E-2,2.4331983E-2,9.250217E-2,2.3734456E-2,2.1115156E-1,-4.4433567E-1,3.4622905E-1,-1.5351641E-1,1.3955298E-1,1.2826679E-3,-4.3955615E-1,5.8747E-2,-9.798504E-1,-1.962833E-2,1.6084753E-1,-7.4683976E-1,4.7459602E-2,9.3390994E-2,-8.707043E-2,-1.9701004E-2,1.05193034E-1,1.3672625E-2,-6.807526E-2,5.6712892E-2,7.030232E-2,-3.1342316E-2,2.4494672E-2,-6.38806E-2,1.7541252E-2,9.842715E-2,4.1568175E-2,-5.0301768E-2,2.073957E-3,-6.845581E-2,1.06829815E-1,1.909436E-2,1.0470486E-2,-8.135495E-2,6.6045183E-3,-6.914367E-2,-2.0927668E-2,-1.0519407E-1,-1.4176494E-2,3.8681816E-2,-1.0154309E-1,-3.4949306E-2,-4.7039375E-2,2.4577003E-2],"categories":[],"categories_nodes":[],"categories_segments":[],"categories_sizes":[],"default_left":[0,0,0,0,0,0,0,0,0,0,0,0,0,0,0,0,0,0,0,0,0,0,0,0,0,0,0,0,0,0,0,0,0,0,0,0,0,0,0,0,0,0,0,0,0,0,0,0,0,0,0,0,0,0,0,0,0,0,0,0,0,0,0,0,0,0,0,0,0,0,0,0,0,0,0,0,0,0,0,0,0,0,0,0,0,0,0,0,0,0,0,0,0,0,0,0,0,0,0,0,0,0,0,0,0,0,0],"id":3,"left_children":[1,3,5,7,9,11,13,15,17,19,21,23,-1,25,27,29,31,33,35,37,39,41,43,45,-1,47,49,51,-1,53,55,57,-1,59,61,-1,63,65,-1,67,69,-1,-1,71,-1,73,-1,75,77,-1,-1,-1,-1,79,81,-1,83,85,87,-1,-1,-1,-1,89,91,93,95,-1,-1,97,-1,99,-1,101,103,105,-1,-1,-1,-1,-1,-1,-1,-1,-1,-1,-1,-1,-1,-1,-1,-1,-1,-1,-1,-1,-1,-1,-1,-1,-1,-1,-1,-1,-1,-1,-1],"loss_changes":[7.8538055E2,9.921831E1,3.479895E1,4.9631897E1,2.1563307E1,1.1157898E1,1.4324368E1,2.8804474E1,1.2349383E1,1.2383703E1,8.04105E0,8.545471E0,0E0,8.788183E0,4.82378E0,1.6346893E1,8.619379E0,4.820846E0,6.56739E0,8.741405E0,1.0595519E1,4.205659E0,3.954298E0,4.5850754E0,0E0,8.823542E0,8.2590294E-1,3.8490295E-2,0E0,1.674707E1,3.1499126E0,8.546373E0,0E0,1.6895872E0,1.5976906E-1,0E0,4.986279E0,8.08684E0,0E0,4.7720833E0,6.263417E0,0E0,0E0,1.3427086E0,0E0,5.269023E0,0E0,5.226508E0,6.788044E-1,0E0,0E0,0E0,0E0,1.3987457E1,7.82949E0,0E0,4.2206774E0,6.1949363E0,5.784834E0,0E0,0E0,0E0,0E0,4.4594746E0,2.5724792E0,5.954972E0,1.2099449E1,0E0,0E0,1.8589838E0,0E0,8.031635E-1,0E0,9.412383E-1,1.8995476E0,3.5858102E0,0E0,0E0,0E0,0E0,0E0,0E0,0E0,0E0,0E0,0E0,0E0,0E0,0E0,0E0,0E0,0E0,0E0,0E0,0E0,0E0,0E0,0E0,0E0,0E0,0E0,0E0,0E0,0E0,0E0,0E0,0E0],"parents":[2147483647,0,0,1,1,2,2,3,3,4,4,5,5,6,6,7,7,8,8,9,9,10,10,11,11,13,13,14,14,15,15,16,16,17,17,18,18,19,19,20,20,21,21,22,22,23,23,25,25,26,26,27,27,29,29,30,30,31,31,33,33,34,34,36,36,37,37,39,39,40,40,43,43,45,45,47,47,48,48,53,53,54,54,56,56,57,57,58,58,63,63,64,64,65,65,66,66,69,69,71,71,73,73,74,74,75,75],"right_children":[2,4,6,8,10,12,14,16,18,20,22,24,-1,26,28,30,32,34,36,38,40,42,44,46,-1,48,50,52,-1,54,56,58,-1,60,62,-1,64,66,-1,68,70,-1,-1,72,-1,74,-1,76,78,-1,-1,-1,-1,80,82,-1,84,86,88,-1,-1,-1,-1,90,92,94,96,-1,-1,98,-1,100,-1,102,104,106,-1,-1,-1,-1,-1,-1,-1,-1,-1,-1,-1,-1,-1,-1,-1,-1,-1,-1,-1,-1,-1,-1,-1,-1,-1,-1,-1,-1,-1,-1,-1],"split_conditions":[1E0,1E0,1.1701611E0,1E0,1E0,1E0,2E0,2E0,-1.0303859E0,8.78199E-3,-1.1552835E0,2.650855E-3,-1.4424211E-1,1E0,2.8639464E-3,4.3842676E-1,9.214551E-1,-4.9061874E-1,-3.32748E-1,3.0537137E-1,3.195139E-1,1E0,3.3381372E-3,2E0,3.1296056E-2,1E0,1.2991366E0,1.1904495E0,-4.948943E-3,5.5621815E-1,1E0,3.9844266E-1,-6.5845996E-2,1.424812E-2,3E0,-9.492593E-2,1E0,1E0,-7.2474405E-2,7.395357E-2,1E0,5.9959717E-2,-3.8322426E-2,8.271863E-1,3.1853423E-3,1E0,-1.23885594E-1,2.6870728E-3,1E0,-1.6314914E-2,-1.0351644E-1,-4.0915873E-2,-1.2201603E-1,3.3690476E-1,5.280628E-1,-4.771607E-2,-4.616849E-1,3.5E-1,1.424812E-2,-4.332562E-2,2.4331983E-2,9.250217E-2,2.3734456E-2,1.9610712E-1,-2.1871513E-1,2E0,-6.2591875E-1,1.3955298E-1,1.2826679E-3,-1.1066434E0,5.8747E-2,-1.4976677E0,-1.962833E-2,1E0,5.689697E-1,1.299095E0,9.3390994E-2,-8.707043E-2,-1.9701004E-2,1.05193034E-1,1.3672625E-2,-6.807526E-2,5.6712892E-2,7.030232E-2,-3.1342316E-2,2.4494672E-2,-6.38806E-2,1.7541252E-2,9.842715E-2,4.1568175E-2,-5.0301768E-2,2.073957E-3,-6.845581E-2,1.06829815E-1,1.909436E-2,1.0470486E-2,-8.135495E-2,6.6045183E-3,-6.914367E-2,-2.0927668E-2,-1.0519407E-1,-1.4176494E-2,3.8681816E-2,-1.0154309E-1,-3.4949306E-2,-4.7039375E-2,2.4577003E-2],"split_indices":[14,8,17,3,3,11,14,11,4,102,4,87,0,3,110,38,4,17,17,68,102,0,59,8,0,1,17,4,0,72,6,17,0,19,16,0,9,11,0,103,6,0,0,17,0,5,0,68,16,0,0,0,0,110,17,0,18,19,19,0,0,0,0,102,4,8,4,0,0,4,0,17,0,2,17,18,0,0,0,0,0,0,0,0,0,0,0,0,0,0,0,0,0,0,0,0,0,0,0,0,0,0,0,0,0,0,0],"split_type":[0,0,0,0,0,0,0,0,0,0,0,0,0,0,0,0,0,0,0,0,0,0,0,0,0,0,0,0,0,0,0,0,0,0,0,0,0,0,0,0,0,0,0,0,0,0,0,0,0,0,0,0,0,0,0,0,0,0,0,0,0,0,0,0,0,0,0,0,0,0,0,0,0,0,0,0,0,0,0,0,0,0,0,0,0,0,0,0,0,0,0,0,0,0,0,0,0,0,0,0,0,0,0,0,0,0,0],"sum_hessian":[1.2119569E3,8.1611017E2,3.9584677E2,6.040213E2,2.1208887E2,3.0442044E2,9.1426315E1,5.356869E2,6.833443E1,1.6394923E2,4.813964E1,7.217374E1,2.3224672E2,5.287756E1,3.8548756E1,4.6564435E2,7.0042564E1,2.0871046E1,4.7463383E1,1.3300954E2,3.093969E1,9.664738E0,3.8474903E1,6.8431015E1,3.7427197E0,4.2305286E1,1.0572272E1,3.3357914E1,5.190842E0,4.5065295E2,1.4991375E1,6.430617E1,5.7363977E0,6.922192E0,1.3948854E1,8.676303E0,3.878708E1,1.2208589E2,1.0923647E1,1.5097162E1,1.5842528E1,5.1966653E0,4.4680724E0,3.377998E1,4.6949234E0,3.457718E1,3.3853832E1,3.1847021E1,1.0458264E1,3.4568484E0,7.115424E0,5.8524003E0,2.7505514E1,4.383473E2,1.2305666E1,5.925729E0,9.065646E0,2.6972763E1,3.73334E1,3.202532E0,3.71966E0,9.50921E0,4.4396443E0,2.0863752E1,1.7923328E1,5.7509235E1,6.457666E1,1.1872373E1,3.224789E0,8.671897E0,7.170632E0,2.8580467E1,5.199511E0,6.198427E0,2.8378754E1,2.663261E1,5.2144103E0,4.2298346E0,6.22843E0,4.193564E2,1.8990887E1,6.931121E0,5.3745456E0,4.8345604E0,4.231086E0,1.8796574E1,8.176189E0,1.8388252E1,1.8945148E1,1.762731E1,3.236442E0,7.207619E0,1.0715709E1,5.902172E0,5.1607063E1,4.8727287E1,1.584937E1,3.7329254E0,4.9389715E0,3.8993516E0,2.4681116E1,3.097876E0,3.100551E0,1.3070091E1,1.5308662E1,5.71544E0,2.0917171E1],"tree_param":{"num_deleted":"0","num_feature":"129","num_nodes":"107","size_leaf_vector":"1"}},{"base_weights":[-1.9835301E-3,5.03587E-1,-1.0858452E0,7.738938E-2,7.4136645E-1,-1.2502923E0,-5.88918E-1,5.799698E-1,-3.023124E-1,1.0249908E0,4.3192548E-1,-8.8650846E-1,-1.3426774E0,-7.693289E-1,3.4329084E-1,6.269474E-2,7.970126E-1,2.5615135E-1,-5.4761577E-1,1.0598849E0,2.7507192E-2,-6.078296E-2,5.9966004E-1,-1.111892E0,-4.283907E-1,-1.3598238E-1,-4.0779974E-2,-3.9713246E-1,-1.1708963E0,6.0982895E-1,-4.4574153E-2,-6.791037E-2,2.2840302E-1,8.861412E-1,-1.9323905E-1,4.336136E-1,-6.9509335E-2,-6.4381677E-1,3.956647E-1,1.0874469E0,5.324389E-2,-5.5713434E-2,4.6717446E-2,-1.7547582E-1,5.4380333E-1,7.346701E-1,-1.0932661E-1,-1.5207327E-2,-1.1714964E0,-5.578937E-1,1.5807064E-2,-5.0088817E-1,4.3755922E-2,-1.2866494E-1,-2.750974E-2,7.652931E-2,1.2759064E-2,5.3667444E-1,-1.5933436E-1,9.366627E-1,-2.8885964E-3,-3.4774877E-2,4.6475865E-3,6.6491795E-1,-1.8295857E-1,-3.6163908E-1,-1.0590711E0,-5.7737827E-2,9.9570595E-2,1.1374182E0,3.3024988E-1,-3.748231E-2,4.965022E-2,-0E0,-6.5157264E-1,8.808934E-2,-8.09423E-3,-1.6664605E-1,8.179891E-1,-6.7126766E-2,3.1416336E-1,-4.3756944E-1,-1.2579757E-1,-6.392726E-1,-5.0145686E-3,-5.9041405E-1,2.6090777E-2,-6.1398256E-3,6.648887E-2,-3.982751E-2,2.8020889E-2,9.803613E-2,-4.093521E-3,1.0587975E-2,1.0021726E-1,-4.5747098E-2,2.5698736E-2,-4.4919897E-2,5.640722E-2,-1.54714435E-2,-1.1747932E-1,1.1621026E-1,-1.24862185E-2,5.1287558E-2,-2.0199971E-2,1.6933529E-2,-4.933636E-2,-8.07732E-2,-0E0,3.0933252E-2,-5.194502E-2,3.0814705E-2,9.355219E-2,5.4289706E-2,-1.5733374E-2,-1.9766975E-3,-5.855729E-2,-2.8439034E-3,-7.597627E-2,-6.6301316E-2,1.3583012E-2],"categories":[],"categories_nodes":[],"categories_segments":[],"categories_sizes":[],"default_left":[0,0,0,0,0,0,0,0,0,0,0,0,0,0,0,0,0,0,0,0,0,0,0,0,0,0,0,0,0,0,0,0,0,0,0,0,0,0,0,0,0,0,0,0,0,0,0,0,0,0,0,0,0,0,0,0,0,0,0,0,0,0,0,0,0,0,0,0,0,0,0,0,0,0,0,0,0,0,0,0,0,0,0,0,0,0,0,0,0,0,0,0,0,0,0,0,0,0,0,0,0,0,0,0,0,0,0,0,0,0,0,0,0,0,0,0,0,0,0,0,0],"id":4,"left_children":[1,3,5,7,9,11,13,15,17,19,21,23,25,27,29,31,33,35,37,39,41,43,45,47,49,-1,-1,51,53,55,-1,-1,57,59,61,63,-1,65,67,69,71,-1,-1,73,75,77,79,-1,81,83,-1,85,-1,-1,-1,-1,-1,87,89,91,-1,-1,-1,93,95,97,99,-1,-1,101,103,-1,-1,105,107,-1,-1,109,111,-1,113,115,-1,117,-1,119,-1,-1,-1,-1,-1,-1,-1,-1,-1,-1,-1,-1,-1,-1,-1,-1,-1,-1,-1,-1,-1,-1,-1,-1,-1,-1,-1,-1,-1,-1,-1,-1,-1,-1,-1],"loss_changes":[6.601363E2,8.2928085E1,2.818692E1,5.7742496E1,4.430182E1,4.568054E0,1.8421371E1,1.43162155E1,2.4249372E1,9.231079E0,2.1598545E1,5.1223106E0,1.1102905E0,1.1079258E1,5.1788616E0,5.851177E0,8.798325E0,1.0516089E1,1.2059666E1,6.931946E0,4.473069E0,5.1461544E0,1.8923538E1,1.6702766E0,2.6399522E0,0E0,0E0,5.356617E0,2.572094E0,7.3976755E-1,0E0,0E0,4.944126E0,4.1018066E0,4.9171847E-1,7.5464363E0,0E0,1.1423656E1,1.0291335E1,7.9997253E0,2.8993716E0,0E0,0E0,5.150737E0,2.8665826E0,1.2876686E1,9.052907E0,0E0,2.1185303E-1,8.465557E-1,0E0,3.9170427E0,0E0,0E0,0E0,0E0,0E0,1.9361277E0,2.543354E0,3.6818619E0,0E0,0E0,0E0,6.390381E0,2.4747112E0,6.900507E0,3.6409378E0,0E0,0E0,8.083069E0,2.539994E0,0E0,0E0,4.3974304E0,1.6979213E0,0E0,0E0,3.5257502E0,7.728798E0,0E0,2.775435E0,5.4526186E-1,0E0,1.3994846E0,0E0,2.7444754E0,0E0,0E0,0E0,0E0,0E0,0E0,0E0,0E0,0E0,0E0,0E0,0E0,0E0,0E0,0E0,0E0,0E0,0E0,0E0,0E0,0E0,0E0,0E0,0E0,0E0,0E0,0E0,0E0,0E0,0E0,0E0,0E0,0E0,0E0,0E0],"parents":[2147483647,0,0,1,1,2,2,3,3,4,4,5,5,6,6,7,7,8,8,9,9,10,10,11,11,12,12,13,13,14,14,15,15,16,16,17,17,18,18,19,19,20,20,21,21,22,22,23,23,24,24,27,27,28,28,29,29,32,32,33,33,34,34,35,35,37,37,38,38,39,39,40,40,43,43,44,44,45,45,46,46,48,48,49,49,51,51,57,57,58,58,59,59,63,63,64,64,65,65,66,66,69,69,70,70,73,73,74,74,77,77,78,78,80,80,81,81,83,83,85,85],"right_children":[2,4,6,8,10,12,14,16,18,20,22,24,26,28,30,32,34,36,38,40,42,44,46,48,50,-1,-1,52,54,56,-1,-1,58,60,62,64,-1,66,68,70,72,-1,-1,74,76,78,80,-1,82,84,-1,86,-1,-1,-1,-1,-1,88,90,92,-1,-1,-1,94,96,98,100,-1,-1,102,104,-1,-1,106,108,-1,-1,110,112,-1,114,116,-1,118,-1,120,-1,-1,-1,-1,-1,-1,-1,-1,-1,-1,-1,-1,-1,-1,-1,-1,-1,-1,-1,-1,-1,-1,-1,-1,-1,-1,-1,-1,-1,-1,-1,-1,-1,-1,-1],"split_conditions":[1E0,5.445069E-2,1.0387461E0,-1.1552835E0,-7.073595E-1,1E0,2.6870728E-3,-1.4727408E0,1E0,5.054326E-1,6.2163585E-1,2E0,3.3507213E-1,2E0,1.5322605E0,-1.5059767E0,1.7164175E-1,1E0,2.538385E-3,3.3229512E-1,4.7055414E-1,4.5738975E-3,9.214551E-1,-4.794324E-1,8.78199E-3,-1.3598238E-1,-4.0779974E-2,1.000331E-3,7.592254E-3,1E0,-4.4574153E-2,-6.791037E-2,-9.985104E-1,3.8875824E-1,-6.567984E-1,-1.5113308E-2,-6.9509335E-2,-6.2591875E-1,-6.651074E-1,1E0,5.064595E-1,-5.5713434E-2,4.6717446E-2,2E0,2.488296E-1,-7.982061E-1,1.1643302E0,-1.5207327E-2,1E0,3.3381372E-3,1.5807064E-2,2.8329514E-4,4.3755922E-2,-1.2866494E-1,-2.750974E-2,7.652931E-2,1.2759064E-2,-1.5009913E0,-9.8446316E-1,1.717118E-2,-2.8885964E-3,-3.4774877E-2,4.6475865E-3,-9.559219E-1,-4.989277E-1,-6.5926915E-1,-1.4926823E0,-5.7737827E-2,9.9570595E-2,4.008492E-1,-8.4728414E-1,-3.748231E-2,4.965022E-2,2E0,3.9187202E-1,8.808934E-2,-8.09423E-3,2.2861281E-1,1E0,-6.7126766E-2,2E0,1.0028958E0,-1.2579757E-1,-9.611869E-2,-5.0145686E-3,1E0,2.6090777E-2,-6.1398256E-3,6.648887E-2,-3.982751E-2,2.8020889E-2,9.803613E-2,-4.093521E-3,1.0587975E-2,1.0021726E-1,-4.5747098E-2,2.5698736E-2,-4.4919897E-2,5.640722E-2,-1.54714435E-2,-1.1747932E-1,1.1621026E-1,-1.24862185E-2,5.1287558E-2,-2.0199971E-2,1.6933529E-2,-4.933636E-2,-8.07732E-2,-0E0,3.0933252E-2,-5.194502E-2,3.0814705E-2,9.355219E-2,5.4289706E-2,-1.5733374E-2,-1.9766975E-3,-5.855729E-2,-2.8439034E-3,-7.597627E-2,-6.6301316E-2,1.3583012E-2],"split_indices":[14,17,17,4,4,8,68,17,5,45,17,16,32,14,4,17,103,3,104,110,17,38,4,18,102,0,0,49,67,16,0,0,18,38,17,4,0,4,17,3,17,0,0,10,38,19,17,0,5,59,0,50,0,0,0,0,0,17,18,33,0,0,0,17,17,18,17,0,0,35,4,0,0,8,18,0,0,18,6,0,8,4,0,19,0,22,0,0,0,0,0,0,0,0,0,0,0,0,0,0,0,0,0,0,0,0,0,0,0,0,0,0,0,0,0,0,0,0,0,0,0],"split_type":[0,0,0,0,0,0,0,0,0,0,0,0,0,0,0,0,0,0,0,0,0,0,0,0,0,0,0,0,0,0,0,0,0,0,0,0,0,0,0,0,0,0,0,0,0,0,0,0,0,0,0,0,0,0,0,0,0,0,0,0,0,0,0,0,0,0,0,0,0,0,0,0,0,0,0,0,0,0,0,0,0,0,0,0,0,0,0,0,0,0,0,0,0,0,0,0,0,0,0,0,0,0,0,0,0,0,0,0,0,0,0,0,0,0,0,0,0,0,0,0,0],"sum_hessian":[1.1965995E3,8.173796E2,3.7921994E2,2.9476428E2,5.226153E2,2.802214E2,9.899851E1,1.2606108E2,1.6870322E2,2.676879E2,2.549274E2,6.55543E1,2.1466711E2,8.362139E1,1.5377127E1,3.891993E1,8.714115E1,5.1308495E1,1.1739472E2,2.5830148E2,9.386421E0,6.524098E1,1.8968642E2,3.9965527E1,2.5588774E1,2.0891037E2,5.7567434E0,4.7655914E1,3.5965477E1,1.2268119E1,3.1090078E0,4.7335987E0,3.4186333E1,8.042404E1,6.717113E0,4.5164474E1,6.144019E0,1.0777874E2,9.615979E0,2.5100836E2,7.2931056E0,3.4726186E0,5.913803E0,5.7363323E1,7.877655E0,1.5933997E2,3.0346458E1,3.2654064E0,3.670012E1,2.1259575E1,4.3292E0,4.3916374E1,3.7395372E0,3.02055E1,5.7599764E0,7.3450217E0,4.9230976E0,1.8332485E1,1.58538475E1,7.622986E1,4.1941824E0,3.2419505E0,3.4751625E0,3.2733276E1,1.2431199E1,6.8771095E1,3.9007645E1,3.662001E0,5.953978E0,2.3346051E2,1.7547852E1,3.9095273E0,3.383578E0,4.478042E1,1.2582906E1,4.155532E0,3.722123E0,1.3043142E1,1.4629683E2,1.2137136E1,1.8209322E1,6.545533E0,3.0154587E1,1.7260134E1,3.9994414E0,4.02208E1,3.6955774E0,3.466604E0,1.4865881E1,1.0661304E1,5.192543E0,7.3055275E1,3.174582E0,1.440599E1,1.8327286E1,7.6966777E0,4.7345214E0,6.480815E1,3.962945E0,5.5836744E0,3.342397E1,2.2937172E2,4.0887923E0,1.3313277E1,4.2345734E0,3.5349884E1,9.430533E0,9.393208E0,3.1896987E0,5.64148E0,7.401662E0,3.028076E1,1.1601606E2,1.1996106E1,6.213216E0,3.074982E0,3.4705513E0,3.7950244E0,1.3465109E1,3.7007313E1,3.2134843E0],"tree_param":{"num_deleted":"0","num_feature":"129","num_nodes":"121","size_leaf_vector":"1"}},{"base_weights":[-1.0946805E-4,4.5628214E-1,-9.967767E-1,6.4448404E-1,-9.758884E-2,-6.887798E-1,-1.2783499E0,8.9544815E-1,3.9269593E-1,-3.2758498E-1,3.2624608E-1,-1.0963103E0,-2.6653478E-1,-1.3163779E0,-5.620471E-3,4.9510422E-1,1.0798914E0,2.147059E-1,8.3527154E-1,2.3695861E-1,-5.250384E-1,8.741979E-1,-1.678842E-2,-1.1358457E0,-5.8320668E-3,-3.443092E-1,5.638614E-2,-1.346508E-1,-5.8904815E-1,6.907697E-1,-0E0,1.1089399E0,-9.970564E-3,4.3064195E-1,-1.5028833E-1,9.581154E-1,2.1362996E-1,9.71707E-3,8.5625894E-2,-6.3014036E-1,3.1511462E-1,1.8089041E-2,9.900587E-1,-4.6468157E-1,3.061088E-1,-1.182107E0,-2.2701493E-2,2.525932E-2,-5.8886254E-1,-6.1701066E-3,-7.3941246E-2,1.0108368E-1,8.487242E-1,2.451014E-1,-6.376811E-2,1.1418748E0,7.06861E-4,5.2784306E-1,-4.2442846E-1,9.083249E-2,-5.247102E-1,1.0022506E0,2.2103554E-3,5.5941457E-1,-3.1790894E-2,3.830364E-1,-3.684158E-1,-7.0098275E-1,1.5560731E-1,-3.0588815E-2,6.866024E-2,1.0894616E-1,1.1661373E-2,4.859814E-2,-7.41658E-1,5.459528E-1,-3.960446E-2,-1.2132722E-1,-1.4270827E-2,-6.7435753E-1,7.3168075E-1,-7.056763E-1,3.025113E-2,-2.3952626E-2,5.368383E-2,9.44503E-2,5.6013833E-3,4.6607375E-2,-2.8102025E-2,1.1680453E-1,8.544238E-3,3.749791E-2,1.1297567E-1,-8.385302E-2,5.2504897E-2,-5.6823965E-2,3.1958073E-2,-6.781169E-2,1.0446052E-2,1.04398094E-1,1.0155057E-2,7.066565E-2,1.5121999E-2,4.2132833E-3,6.4544946E-2,7.195813E-3,-7.573861E-2,-2.7462745E-2,-8.602586E-2,3.3953108E-2,-8.569476E-3,-1.0612943E-1,-2.7538378E-2,-2.789673E-2,7.577362E-2,-8.720987E-2,-2.5388313E-2,9.5526926E-2,-2.417568E-2,-7.924665E-2,1.7557545E-2],"categories":[],"categories_nodes":[],"categories_segments":[],"categories_sizes":[],"default_left":[0,0,0,0,0,0,0,0,0,0,0,0,0,0,0,0,0,0,0,0,0,0,0,0,0,0,0,0,0,0,0,0,0,0,0,0,0,0,0,0,0,0,0,0,0,0,0,0,0,0,0,0,0,0,0,0,0,0,0,0,0,0,0,0,0,0,0,0,0,0,0,0,0,0,0,0,0,0,0,0,0,0,0,0,0,0,0,0,0,0,0,0,0,0,0,0,0,0,0,0,0,0,0,0,0,0,0,0,0,0,0,0,0,0,0,0,0,0,0,0,0],"id":5,"left_children":[1,3,5,7,9,11,13,15,17,19,21,23,25,27,-1,29,31,33,35,37,39,41,43,45,-1,47,-1,-1,49,51,53,55,-1,57,59,61,63,65,-1,67,69,-1,71,73,75,77,-1,79,81,-1,-1,83,85,87,-1,89,-1,91,93,95,97,99,-1,101,-1,103,105,107,109,-1,-1,-1,-1,-1,111,113,-1,-1,-1,115,117,119,-1,-1,-1,-1,-1,-1,-1,-1,-1,-1,-1,-1,-1,-1,-1,-1,-1,-1,-1,-1,-1,-1,-1,-1,-1,-1,-1,-1,-1,-1,-1,-1,-1,-1,-1,-1,-1,-1,-1],"loss_changes":[5.374204E2,8.476523E1,2.84664E1,3.6720352E1,2.0784374E1,3.0716393E1,8.352356E0,1.9847046E1,2.3560738E1,1.585583E1,1.430026E1,3.4439163E0,7.006251E0,6.457825E-1,0E0,9.953669E0,7.455826E0,1.812264E1,5.72575E0,5.264427E0,9.9437275E0,1.5106812E0,7.8344927E0,2.5509415E0,0E0,8.349675E0,0E0,0E0,8.891387E-1,6.392193E0,5.7864957E0,7.012924E0,0E0,1.2823988E1,8.080294E0,2.7651062E0,4.35198E0,5.1048465E0,0E0,5.679714E0,4.11759E0,0E0,1.4537601E0,7.4491186E0,6.1695757E0,1.8981094E0,0E0,2.1724316E1,6.6368694E0,0E0,0E0,3.5373611E0,4.028496E0,3.6223311E0,0E0,4.7688904E0,0E0,1.0175266E1,8.37749E0,9.1611395E0,3.6992807E0,2.022667E0,0E0,2.9723883E-1,0E0,1.4571984E0,3.3491778E0,4.8054543E0,6.240112E-1,0E0,0E0,0E0,0E0,0E0,1.5673246E0,5.296071E0,0E0,0E0,0E0,8.3783054E-1,5.7548084E0,4.447098E0,0E0,0E0,0E0,0E0,0E0,0E0,0E0,0E0,0E0,0E0,0E0,0E0,0E0,0E0,0E0,0E0,0E0,0E0,0E0,0E0,0E0,0E0,0E0,0E0,0E0,0E0,0E0,0E0,0E0,0E0,0E0,0E0,0E0,0E0,0E0,0E0,0E0,0E0,0E0],"parents":[2147483647,0,0,1,1,2,2,3,3,4,4,5,5,6,6,7,7,8,8,9,9,10,10,11,11,12,12,13,13,15,15,16,16,17,17,18,18,19,19,20,20,21,21,22,22,23,23,25,25,28,28,29,29,30,30,31,31,33,33,34,34,35,35,36,36,37,37,39,39,40,40,42,42,43,43,44,44,45,45,47,47,48,48,51,51,52,52,53,53,55,55,57,57,58,58,59,59,60,60,61,61,63,63,65,65,66,66,67,67,68,68,74,74,75,75,79,79,80,80,81,81],"right_children":[2,4,6,8,10,12,14,16,18,20,22,24,26,28,-1,30,32,34,36,38,40,42,44,46,-1,48,-1,-1,50,52,54,56,-1,58,60,62,64,66,-1,68,70,-1,72,74,76,78,-1,80,82,-1,-1,84,86,88,-1,90,-1,92,94,96,98,100,-1,102,-1,104,106,108,110,-1,-1,-1,-1,-1,112,114,-1,-1,-1,116,118,120,-1,-1,-1,-1,-1,-1,-1,-1,-1,-1,-1,-1,-1,-1,-1,-1,-1,-1,-1,-1,-1,-1,-1,-1,-1,-1,-1,-1,-1,-1,-1,-1,-1,-1,-1,-1,-1,-1,-1],"split_conditions":[1E0,1E0,2E0,-8.702409E-1,3.9844266E-1,2E0,3.366912E-3,-9.511104E-2,1.0216166E0,-1.2375236E0,-3.2815936E-1,2.970979E-4,2.650855E-3,2.8176461E-3,-5.620471E-3,3E0,4.9558952E-1,1E0,2E0,3.3381372E-3,3.3886225E-3,6.061673E-1,1.0781176E0,3.3886225E-3,-5.8320668E-3,1E0,5.638614E-2,-1.346508E-1,-1.3165318E0,2E0,1E0,4.6294132E-1,-9.970564E-3,3E0,2E0,3.8940072E-1,2E0,1E0,8.5625894E-2,1.000331E-3,-8.733427E-1,1.8089041E-2,1.181149E0,5.280628E-1,1.4758372E0,3.3507213E-1,-2.2701493E-2,9.81402E-1,2.527387E-4,-6.1701066E-3,-7.3941246E-2,1E0,1E0,-1.1222214E0,-6.376811E-2,5.9405214E-1,7.06861E-4,2.8639464E-3,1E0,-1.3831776E-1,3.3381372E-3,3.4763414E-1,2.2103554E-3,2E0,-3.1790894E-2,-9.9839187E-1,-1.4810498E0,1E0,2.8177688E-1,-3.0588815E-2,6.866024E-2,1.0894616E-1,1.1661373E-2,4.859814E-2,2E0,-1.4270565E-1,-3.960446E-2,-1.2132722E-1,-1.4270827E-2,1E0,1E0,1E0,3.025113E-2,-2.3952626E-2,5.368383E-2,9.44503E-2,5.6013833E-3,4.6607375E-2,-2.8102025E-2,1.1680453E-1,8.544238E-3,3.749791E-2,1.1297567E-1,-8.385302E-2,5.2504897E-2,-5.6823965E-2,3.1958073E-2,-6.781169E-2,1.0446052E-2,1.04398094E-1,1.0155057E-2,7.066565E-2,1.5121999E-2,4.2132833E-3,6.4544946E-2,7.195813E-3,-7.573861E-2,-2.7462745E-2,-8.602586E-2,3.3953108E-2,-8.569476E-3,-1.0612943E-1,-2.7538378E-2,-2.789673E-2,7.577362E-2,-8.720987E-2,-2.5388313E-2,9.5526926E-2,-2.417568E-2,-7.924665E-2,1.7557545E-2],"split_indices":[14,11,14,4,17,13,42,17,17,4,18,121,87,58,0,16,45,2,8,59,103,17,17,103,0,2,0,0,17,16,20,50,0,16,9,67,9,0,0,49,18,0,17,17,18,32,0,18,75,0,0,20,2,4,0,33,0,110,13,17,59,59,0,16,0,18,17,9,26,0,0,0,0,0,16,19,0,0,0,9,1,22,0,0,0,0,0,0,0,0,0,0,0,0,0,0,0,0,0,0,0,0,0,0,0,0,0,0,0,0,0,0,0,0,0,0,0,0,0,0,0],"split_type":[0,0,0,0,0,0,0,0,0,0,0,0,0,0,0,0,0,0,0,0,0,0,0,0,0,0,0,0,0,0,0,0,0,0,0,0,0,0,0,0,0,0,0,0,0,0,0,0,0,0,0,0,0,0,0,0,0,0,0,0,0,0,0,0,0,0,0,0,0,0,0,0,0,0,0,0,0,0,0,0,0,0,0,0,0,0,0,0,0,0,0,0,0,0,0,0,0,0,0,0,0,0,0,0,0,0,0,0,0,0,0,0,0,0,0,0,0,0,0,0,0],"sum_hessian":[1.1733616E3,8.062389E2,3.6712265E2,6.014097E2,2.0482915E2,1.8208743E2,1.8503523E2,2.9587772E2,3.05532E2,1.3351881E2,7.131034E1,8.92883E1,9.2799126E1,1.7907298E2,5.96225E0,9.81397E1,1.9773802E2,2.2229744E2,8.323459E1,3.4259624E1,9.9259186E1,2.5182487E1,4.6127853E1,8.555616E1,3.7321393E0,8.7103004E1,5.6961246E0,1.6854808E2,1.05248995E1,6.9331345E1,2.8808353E1,1.9330219E2,4.4358416E0,1.3938797E2,8.290947E1,6.755832E1,1.567627E1,2.815344E1,6.1061835E0,8.9217155E1,1.0042029E1,5.196283E0,1.9986206E1,1.8717693E1,2.7410158E1,8.016291E1,5.3932495E0,3.5951344E1,5.115166E1,3.7343779E0,6.7905216E0,1.616733E1,5.3164017E1,2.2492048E1,6.3163066E0,1.8746295E2,5.839233E0,1.2663976E2,1.2748208E1,5.211251E1,3.0796957E1,6.4143875E1,3.4144437E0,9.48458E0,6.19169E0,1.4273865E1,1.3879576E1,8.235121E1,6.865944E0,3.9223437E0,6.1196856E0,1.6953098E1,3.0331078E0,3.4605763E0,1.5257118E1,2.120063E1,6.209528E0,7.708623E1,3.0766869E0,1.8082762E1,1.7868582E1,4.6060913E1,5.090748E0,9.956536E0,6.210793E0,4.663703E1,6.5269876E0,1.6294798E1,6.1972504E0,1.8242651E2,5.0364285E0,1.0630121E2,2.033855E1,9.275535E0,3.4726734E0,1.178468E1,4.0327827E1,2.4637508E1,6.1594486E0,6.058937E1,3.5545042E0,4.640865E0,4.8437147E0,8.393325E0,5.8805404E0,7.9180527E0,5.961523E0,2.5531717E1,5.6819496E1,3.2073557E0,3.6585882E0,5.8962436E0,9.360874E0,3.9752972E0,1.7225332E1,9.214975E0,8.867786E0,1.46752205E1,3.193361E0,4.2401474E1,3.6594403E0],"tree_param":{"num_deleted":"0","num_feature":"129","num_nodes":"121","size_leaf_vector":"1"}},{"base_weights":[-2.9282333E-2,3.8048398E-1,-9.399143E-1,-4.4301398E-2,6.1481386E-1,-1.1105175E0,-5.1899874E-1,3.2985207E-1,-3.3573833E-1,8.0911046E-1,1.3875139E-1,-6.990225E-1,-1.2093066E0,-3.0832472E-1,-1.1037393E-1,2.3323612E-1,1.1140468E-1,-1.2227903E-1,-8.2300997E-1,9.443418E-1,3.5706222E-1,-1.4728177E-1,4.5255178E-1,-6.505905E-2,-8.575302E-1,-1.2404686E-1,-1.6064017E-1,-4.265683E-1,3.338468E-1,3.4952408E-1,-5.181008E-1,4.9321152E-2,-6.8680453E-1,-9.2055976E-1,1.2421035E-2,9.961408E-1,2.7795595E-1,-5.158279E-2,4.4603568E-1,3.432062E-2,-7.576726E-1,5.5515105E-1,-2.983411E-1,4.7775057E-1,-7.2530925E-2,-2.8208825E-1,-1.0513252E-1,3.8558323E-2,-6.404033E-2,-5.149504E-1,2.3185977E-1,7.938661E-2,-1.820988E-1,2.1295513E-1,1.1707163E-1,-9.154935E-2,8.3135195E-2,3.3805364E-1,-3.042075E-1,3.9967656E-2,-9.7853535E-1,-3.545164E-1,-9.993657E-1,1.0262738E0,-3.015865E-2,4.46078E-1,-3.618209E-2,5.019309E-1,-3.705316E-2,2.6035327E-1,-5.191496E-1,-9.092404E-1,-4.373674E-3,-2.1016877E-2,6.313077E-1,2.499351E-3,-5.1375147E-2,-9.953286E-3,8.4962435E-2,-5.858401E-1,4.697858E-2,-2.5027993E-1,-7.795994E-1,-7.892086E-3,4.6042215E-2,-4.1069057E-2,1.4066318E-2,3.9102055E-2,-5.1687296E-2,-1.4620576E-3,1.5185297E-2,6.4097516E-2,-3.5634648E-2,-3.0169024E-3,-7.753642E-2,-1.0548409E-1,-2.5065312E-2,-4.592478E-2,-4.3555773E-3,-1.0648205E-1,-3.0419676E-2,1.0464215E-1,-1.0058581E-2,5.7485322E-3,-1.267629E-2,2.0246128E-2,6.5190576E-2,5.6912858E-2,-2.722456E-2,5.2672364E-2,-4.503502E-3,-4.8560644E-3,-9.569437E-2,-1.5459716E-2,-1.1023735E-1,2.2467198E-3,6.946924E-2,-7.517329E-2,-1.19576035E-2,2.4562258E-2,-4.4215567E-2,-9.5597185E-2,1.2743521E-3],"categories":[],"categories_nodes":[],"categories_segments":[],"categories_sizes":[],"default_left":[0,0,0,0,0,0,0,0,0,0,0,0,0,0,0,0,0,0,0,0,0,0,0,0,0,0,0,0,0,0,0,0,0,0,0,0,0,0,0,0,0,0,0,0,0,0,0,0,0,0,0,0,0,0,0,0,0,0,0,0,0,0,0,0,0,0,0,0,0,0,0,0,0,0,0,0,0,0,0,0,0,0,0,0,0,0,0,0,0,0,0,0,0,0,0,0,0,0,0,0,0,0,0,0,0,0,0,0,0,0,0,0,0,0,0,0,0,0,0,0,0,0,0],"id":6,"left_children":[1,3,5,7,9,11,13,15,17,19,21,23,25,27,-1,29,-1,31,33,35,37,39,41,43,45,-1,47,49,51,53,55,57,59,61,-1,63,65,-1,67,69,71,73,75,77,-1,79,-1,-1,-1,81,83,-1,85,87,-1,-1,89,91,93,-1,95,97,99,101,103,105,-1,107,-1,109,111,113,-1,-1,115,-1,-1,-1,-1,117,-1,119,121,-1,-1,-1,-1,-1,-1,-1,-1,-1,-1,-1,-1,-1,-1,-1,-1,-1,-1,-1,-1,-1,-1,-1,-1,-1,-1,-1,-1,-1,-1,-1,-1,-1,-1,-1,-1,-1,-1,-1,-1],"loss_changes":[4.2824832E2,7.89549E1,2.3106903E1,3.1519041E1,4.6680176E1,6.5806885E0,1.2097574E1,8.421812E0,1.6387707E1,2.0625595E1,1.40258045E1,5.5156174E0,5.4589233E0,7.172516E0,0E0,1.1011414E1,0E0,1.1603469E1,5.028633E0,8.282639E0,7.8926163E0,9.362133E0,6.3957815E0,7.1669245E0,3.8064384E0,0E0,3.7218401E0,4.8831825E0,4.345587E0,1.0598542E1,4.5217395E0,9.997263E0,1.0448589E1,4.388466E-1,0E0,8.083221E0,3.4047923E0,0E0,4.5819454E0,8.967547E0,1.8341932E0,4.4600887E0,8.935809E-1,2.8053784E0,0E0,5.0354586E0,0E0,0E0,0E0,3.8581257E0,1.0022364E0,0E0,1.0336137E0,1.3103324E1,0E0,0E0,9.281757E-2,1.2242949E1,5.526661E0,0E0,9.957695E-2,2.5432312E-1,2.4341202E-1,6.1259155E0,1.2955277E-1,4.9816036E-1,0E0,4.824089E0,0E0,4.272748E0,3.9988294E0,1.4667435E0,0E0,0E0,2.2498837E0,0E0,0E0,0E0,0E0,6.446686E-1,0E0,4.253064E0,4.5825405E0,0E0,0E0,0E0,0E0,0E0,0E0,0E0,0E0,0E0,0E0,0E0,0E0,0E0,0E0,0E0,0E0,0E0,0E0,0E0,0E0,0E0,0E0,0E0,0E0,0E0,0E0,0E0,0E0,0E0,0E0,0E0,0E0,0E0,0E0,0E0,0E0,0E0,0E0,0E0,0E0],"parents":[2147483647,0,0,1,1,2,2,3,3,4,4,5,5,6,6,7,7,8,8,9,9,10,10,11,11,12,12,13,13,15,15,17,17,18,18,19,19,20,20,21,21,22,22,23,23,24,24,26,26,27,27,28,28,29,29,30,30,31,31,32,32,33,33,35,35,36,36,38,38,39,39,40,40,41,41,42,42,43,43,45,45,49,49,50,50,52,52,53,53,56,56,57,57,58,58,60,60,61,61,62,62,63,63,64,64,65,65,67,67,69,69,70,70,71,71,74,74,79,79,81,81,82,82],"right_children":[2,4,6,8,10,12,14,16,18,20,22,24,26,28,-1,30,-1,32,34,36,38,40,42,44,46,-1,48,50,52,54,56,58,60,62,-1,64,66,-1,68,70,72,74,76,78,-1,80,-1,-1,-1,82,84,-1,86,88,-1,-1,90,92,94,-1,96,98,100,102,104,106,-1,108,-1,110,112,114,-1,-1,116,-1,-1,-1,-1,118,-1,120,122,-1,-1,-1,-1,-1,-1,-1,-1,-1,-1,-1,-1,-1,-1,-1,-1,-1,-1,-1,-1,-1,-1,-1,-1,-1,-1,-1,-1,-1,-1,-1,-1,-1,-1,-1,-1,-1,-1,-1,-1],"split_conditions":[1E0,5.445069E-2,9.518211E-1,-1.1552835E0,-1.372744E-1,1E0,1.5729809E0,-1.1937913E0,3E0,1E0,1.0216166E0,1E0,4.518999E-3,2.6870728E-3,-1.1037393E-1,-1.1960039E0,1.1140468E-1,1E0,3.203718E-3,3E0,1E0,8.4001434E-1,1E0,1E0,1.06168404E-1,-1.2404686E-1,-4.1848612E-1,2.60108E-4,2E0,-1.2347326E0,-9.527649E-1,-6.2591875E-1,-4E-1,-1.094046E0,1.2421035E-2,5.5621815E-1,2E0,-5.158279E-2,4.3347225E-1,2E0,8.7039304E-1,4.6820387E-1,1.1994288E0,1E0,-7.2530925E-2,-2.7290922E-2,-1.0513252E-1,3.8558323E-2,-6.404033E-2,1E0,1.1904495E0,7.938661E-2,1.4387276E0,-1.2367243E0,1.1707163E-1,-9.154935E-2,-9.3732387E-1,1E0,1E0,3.9967656E-2,6.614225E-1,-1.1482391E0,4.5738975E-3,4.8167673E-1,6.992279E-1,1E0,-3.618209E-2,2.3881903E-1,-3.705316E-2,1E0,2E-1,5.014741E-1,-4.373674E-3,-2.1016877E-2,-4.9059352E-1,2.499351E-3,-5.1375147E-2,-9.953286E-3,8.4962435E-2,1E0,4.697858E-2,2E0,2.1608813E0,-7.892086E-3,4.6042215E-2,-4.1069057E-2,1.4066318E-2,3.9102055E-2,-5.1687296E-2,-1.4620576E-3,1.5185297E-2,6.4097516E-2,-3.5634648E-2,-3.0169024E-3,-7.753642E-2,-1.0548409E-1,-2.5065312E-2,-4.592478E-2,-4.3555773E-3,-1.0648205E-1,-3.0419676E-2,1.0464215E-1,-1.0058581E-2,5.7485322E-3,-1.267629E-2,2.0246128E-2,6.5190576E-2,5.6912858E-2,-2.722456E-2,5.2672364E-2,-4.503502E-3,-4.8560644E-3,-9.569437E-2,-1.5459716E-2,-1.1023735E-1,2.2467198E-3,6.946924E-2,-7.517329E-2,-1.19576035E-2,2.4562258E-2,-4.4215567E-2,-9.5597185E-2,1.2743521E-3],"split_indices":[14,17,17,4,4,8,4,4,16,2,17,5,80,68,0,4,0,3,106,16,7,4,3,3,18,0,18,45,9,4,18,4,19,4,0,72,8,0,67,8,17,18,17,2,0,18,0,0,0,0,4,0,17,4,0,0,18,9,11,0,19,4,38,43,17,13,0,103,0,0,19,17,0,0,19,0,0,0,0,0,0,6,18,0,0,0,0,0,0,0,0,0,0,0,0,0,0,0,0,0,0,0,0,0,0,0,0,0,0,0,0,0,0,0,0,0,0,0,0,0,0,0,0],"split_type":[0,0,0,0,0,0,0,0,0,0,0,0,0,0,0,0,0,0,0,0,0,0,0,0,0,0,0,0,0,0,0,0,0,0,0,0,0,0,0,0,0,0,0,0,0,0,0,0,0,0,0,0,0,0,0,0,0,0,0,0,0,0,0,0,0,0,0,0,0,0,0,0,0,0,0,0,0,0,0,0,0,0,0,0,0,0,0,0,0,0,0,0,0,0,0,0,0,0,0,0,0,0,0,0,0,0,0,0,0,0,0,0,0,0,0,0,0,0,0,0,0,0,0],"sum_hessian":[1.1396852E3,7.875308E2,3.5215433E2,2.8098596E2,5.0654486E2,2.4575526E2,1.0639908E2,1.2265204E2,1.5833391E2,3.5759167E2,1.4895319E2,5.4027138E1,1.9172812E2,8.2834946E1,2.3564138E1,1.1393232E2,8.719719E0,1.1372386E2,4.461005E1,2.7172665E2,8.586503E1,7.886795E1,7.008523E1,1.2060988E1,4.196615E1,1.8539207E2,6.3360505E0,7.121986E1,1.1615087E1,1.0062968E2,1.3302645E1,8.987709E1,2.3846767E1,4.0642612E1,3.9674382E0,2.5015254E2,2.1574095E1,6.0635347E0,7.980149E1,6.35669E1,1.5301048E1,6.269474E1,7.390489E0,7.1428437E0,4.918144E0,1.3177167E1,2.8788982E1,3.232521E0,3.1035292E0,6.3693645E1,7.526211E0,5.1037407E0,6.5113463E0,9.070413E1,9.925544E0,6.850393E0,6.4522514E0,4.9724365E1,4.0152725E1,4.6618776E0,1.918489E1,7.809836E0,3.2832775E1,2.431121E2,7.040443E0,1.8167374E1,3.4067206E0,7.624607E1,3.5554233E0,4.67668E1,1.68001E1,1.1603358E1,3.6976902E0,4.91823E0,5.7776512E1,4.183158E0,3.207331E0,3.8408809E0,3.301963E0,1.0109363E1,3.067804E0,3.5925705E1,2.776794E1,4.1138473E0,3.4123638E0,3.3551977E0,3.1561487E0,7.451717E1,1.6186964E1,3.3625348E0,3.089717E0,3.493588E1,1.4788488E1,2.8212109E1,1.1940617E1,1.5613897E1,3.5709927E0,4.1747317E0,3.6351042E0,2.7931969E1,4.900807E0,2.3920944E2,3.9026659E0,3.9979348E0,3.0425084E0,1.2176156E1,5.991218E0,7.125024E1,4.995835E0,2.3605577E1,2.3161222E1,1.0348502E1,6.451599E0,3.9375465E0,7.665812E0,6.107414E0,5.1669098E1,5.4919252E0,4.617438E0,9.564542E0,2.6361162E1,2.2139854E1,5.6280856E0],"tree_param":{"num_deleted":"0","num_feature":"129","num_nodes":"123","size_leaf_vector":"1"}},{"base_weights":[-3.1163907E-2,3.5917404E-1,-8.8123095E-1,5.370567E-1,-1.3748787E-1,-1.013721E0,-3.265785E-1,6.304368E-1,-1.2242699E-1,-4.4103265E-2,-1.0405014E-1,-8.019577E-1,-1.1845915E0,-4.4487335E-2,-9.497232E-2,7.212145E-1,9.022802E-2,5.029227E-1,-3.3934876E-1,2.0254962E-1,-3.6529237E-1,-8.573984E-1,3.2722667E-2,-1.2384578E-1,-3.3368027E-1,1.8791494E-1,-7.175663E-1,7.534267E-1,-2.8837702E-1,3.1409252E-1,-6.3692105E-1,6.2016476E-2,-5.2519734E-3,-1.8183345E-1,-9.2757694E-2,-4.959998E-2,5.717992E-1,-4.6825662E-1,8.293008E-2,-1.0015546E0,-5.5064726E-1,-6.526151E-2,1.01420805E-2,-1.3412399E-2,7.9567105E-2,-1.4624118E-2,-8.537705E-2,7.9203707E-1,-1.7023347E-1,-6.457358E-2,2.1216137E-2,7.383015E-2,7.921431E-1,-5.8954703E-3,-7.699152E-2,-6.482693E-1,2.3099722E-2,2.0004316E-1,-4.2150295E-1,7.0503324E-1,-3.706577E-2,1.453928E-1,-6.308016E-1,-1.0396397E0,-1.282185E-3,-7.261506E-1,6.6380806E-2,-5.480234E-1,2.4284005E-1,8.215248E-2,-1.11466665E-2,1.1296738E-2,-6.686403E-2,7.118946E-2,-1.6446177E-2,9.60525E-2,-3.2098398E-3,-9.692544E-3,-7.4966766E-2,5.1465776E-2,-2.9398171E-2,3.6675584E-2,-5.708608E-2,-5.702396E-2,1.8137123E-2,1.0900097E-2,8.501904E-2,-2.4913082E-2,7.808674E-2,-7.102838E-2,3.007952E-2,-1.071278E-1,-8.302369E-3,-1.1084791E-2,-8.286791E-2,-2.3742257E-2,5.5573393E-2,-1.1327399E-2,-6.394501E-2,7.425874E-2,-1.9635358E-3],"categories":[],"categories_nodes":[],"categories_segments":[],"categories_sizes":[],"default_left":[0,0,0,0,0,0,0,0,0,0,0,0,0,0,0,0,0,0,0,0,0,0,0,0,0,0,0,0,0,0,0,0,0,0,0,0,0,0,0,0,0,0,0,0,0,0,0,0,0,0,0,0,0,0,0,0,0,0,0,0,0,0,0,0,0,0,0,0,0,0,0,0,0,0,0,0,0,0,0,0,0,0,0,0,0,0,0,0,0,0,0,0,0,0,0,0,0,0,0,0,0],"id":7,"left_children":[1,3,5,7,9,11,13,15,17,19,-1,21,23,25,-1,27,29,31,33,35,37,39,-1,-1,41,43,45,47,49,51,53,-1,-1,55,-1,57,59,61,-1,63,65,-1,-1,67,-1,-1,-1,69,71,-1,-1,73,75,-1,-1,77,79,81,83,85,-1,87,89,91,-1,93,95,97,99,-1,-1,-1,-1,-1,-1,-1,-1,-1,-1,-1,-1,-1,-1,-1,-1,-1,-1,-1,-1,-1,-1,-1,-1,-1,-1,-1,-1,-1,-1,-1,-1],"loss_changes":[3.7642078E2,6.9024E1,2.477472E1,3.5672134E1,1.7253569E1,6.3536987E0,1.2893707E1,2.4328964E1,1.0750618E1,1.5589593E1,0E0,9.965202E0,5.0511017E0,9.328778E0,0E0,1.4898773E1,1.3319543E1,1.5310559E0,4.5606866E0,1.0544619E1,1.2017422E1,3.6096344E0,0E0,0E0,2.3317223E0,5.5750656E0,5.892472E-1,1.5504364E1,3.4696484E0,6.770776E0,1.2241793E0,0E0,0E0,4.9613643E0,0E0,6.8361926E0,6.818925E0,8.517422E0,0E0,3.1081467E0,5.919647E0,0E0,0E0,5.6719003E0,0E0,0E0,0E0,1.11454315E1,3.1744251E0,0E0,0E0,7.462343E0,3.0058699E0,0E0,0E0,5.0459003E-1,6.687854E0,6.509565E0,3.0949197E0,3.125908E0,0E0,5.8785768E0,5.7155323E0,2.0525436E0,0E0,2.1352386E0,2.806689E0,1.6914034E-1,3.784426E0,0E0,0E0,0E0,0E0,0E0,0E0,0E0,0E0,0E0,0E0,0E0,0E0,0E0,0E0,0E0,0E0,0E0,0E0,0E0,0E0,0E0,0E0,0E0,0E0,0E0,0E0,0E0,0E0,0E0,0E0,0E0,0E0],"parents":[2147483647,0,0,1,1,2,2,3,3,4,4,5,5,6,6,7,7,8,8,9,9,11,11,12,12,13,13,15,15,16,16,17,17,18,18,19,19,20,20,21,21,24,24,25,25,26,26,27,27,28,28,29,29,30,30,33,33,35,35,36,36,37,37,39,39,40,40,43,43,47,47,48,48,51,51,52,52,55,55,56,56,57,57,58,58,59,59,61,61,62,62,63,63,65,65,66,66,67,67,68,68],"right_children":[2,4,6,8,10,12,14,16,18,20,-1,22,24,26,-1,28,30,32,34,36,38,40,-1,-1,42,44,46,48,50,52,54,-1,-1,56,-1,58,60,62,-1,64,66,-1,-1,68,-1,-1,-1,70,72,-1,-1,74,76,-1,-1,78,80,82,84,86,-1,88,90,92,-1,94,96,98,100,-1,-1,-1,-1,-1,-1,-1,-1,-1,-1,-1,-1,-1,-1,-1,-1,-1,-1,-1,-1,-1,-1,-1,-1,-1,-1,-1,-1,-1,-1,-1,-1],"split_conditions":[1E0,1E0,1.2160468E0,1E0,2.9215395E-1,2E0,1.5729809E0,2E0,-1.1222214E0,1E0,-1.0405014E-1,2.650855E-3,2.8176461E-3,1E0,-9.497232E-2,5.5621815E-1,1E0,1E0,1.4086612E-1,4.7055414E-1,2.8639464E-3,2E0,3.2722667E-2,-1.2384578E-1,2E0,2.6870728E-3,1E0,4.3842676E-1,2E0,8.803638E-1,-8.75E-1,6.2016476E-2,-5.2519734E-3,-3.2277724E-1,-9.2757694E-2,-8.306679E-1,9.214551E-1,-1.2511903E0,8.293008E-2,1.8393176E-4,5.456493E-1,-6.526151E-2,1.01420805E-2,7.636271E-1,7.9567105E-2,-1.4624118E-2,-8.537705E-2,3.763367E-1,-3.6248443E-1,-6.457358E-2,2.1216137E-2,-4.8230973E-1,2.775999E-1,-5.8954703E-3,-7.699152E-2,-8.6537397E-1,-5.0375766E-1,7.2409934E-1,8.78199E-3,1E0,-3.706577E-2,3.3381372E-3,1.000331E-3,1.4358127E-2,-1.282185E-3,1E0,8.78199E-3,1E0,1.7113334E0,8.215248E-2,-1.11466665E-2,1.1296738E-2,-6.686403E-2,7.118946E-2,-1.6446177E-2,9.60525E-2,-3.2098398E-3,-9.692544E-3,-7.4966766E-2,5.1465776E-2,-2.9398171E-2,3.6675584E-2,-5.708608E-2,-5.702396E-2,1.8137123E-2,1.0900097E-2,8.501904E-2,-2.4913082E-2,7.808674E-2,-7.102838E-2,3.007952E-2,-1.071278E-1,-8.302369E-3,-1.1084791E-2,-8.286791E-2,-2.3742257E-2,5.5573393E-2,-1.1327399E-2,-6.394501E-2,7.425874E-2,-1.9635358E-3],"split_indices":[14,11,17,3,110,14,4,8,4,0,0,87,58,3,0,72,20,8,102,17,110,12,0,0,6,68,16,38,6,17,19,0,0,17,0,4,4,4,0,46,19,0,0,4,0,0,0,104,18,0,0,17,19,0,0,18,4,19,102,12,0,59,49,30,0,5,102,9,18,0,0,0,0,0,0,0,0,0,0,0,0,0,0,0,0,0,0,0,0,0,0,0,0,0,0,0,0,0,0,0,0],"split_type":[0,0,0,0,0,0,0,0,0,0,0,0,0,0,0,0,0,0,0,0,0,0,0,0,0,0,0,0,0,0,0,0,0,0,0,0,0,0,0,0,0,0,0,0,0,0,0,0,0,0,0,0,0,0,0,0,0,0,0,0,0,0,0,0,0,0,0,0,0,0,0,0,0,0,0,0,0,0,0,0,0,0,0,0,0,0,0,0,0,0,0,0,0,0,0,0,0,0,0,0,0],"sum_hessian":[1.1264622E3,7.734828E2,3.5297937E2,5.69418E2,2.0406471E2,2.8210245E2,7.087691E1,4.9907846E2,7.0339584E1,1.8884184E2,1.5222865E1,1.3640797E2,1.4569447E2,5.185068E1,1.9026226E1,4.25972E2,7.310651E1,1.663856E1,5.3701023E1,1.0747444E2,8.13674E1,1.3102618E2,5.381796E0,1.3519664E2,1.049783E1,4.0575394E1,1.1275286E1,4.138806E2,1.2091362E1,5.774003E1,1.5366474E1,1.3502426E1,3.136133E0,4.662287E1,7.0781536E0,6.576045E1,4.171399E1,7.722686E1,4.140538E0,8.27514E1,4.8274784E1,5.036313E0,5.461517E0,3.329362E1,7.2817726E0,3.9087045E0,7.3665814E0,3.97925E2,1.5955615E1,6.4942536E0,5.5971084E0,4.163948E1,1.610055E1,4.0950904E0,1.1271383E1,1.1739041E1,3.4883827E1,4.029298E1,2.5467468E1,3.7523167E1,4.190822E0,1.6131847E1,6.1095016E1,7.938642E1,3.3649788E0,3.7159924E1,1.1114861E1,9.438403E0,2.3855219E1,3.8580704E2,1.2117971E1,1.2019003E1,3.9366121E0,9.274696E0,3.2364784E1,1.292092E1,3.1796293E0,3.1920946E0,8.546947E0,1.2824887E1,2.205894E1,3.4959503E1,5.333478E0,2.0734425E1,4.7330437E0,8.855207E0,2.866796E1,1.13560915E1,4.7757554E0,5.7266716E1,3.8282988E0,7.627964E1,3.1067834E0,6.6359057E0,3.052402E1,8.001968E0,3.1128912E0,3.3861752E0,6.0522285E0,5.826329E0,1.8028889E1],"tree_param":{"num_deleted":"0","num_feature":"129","num_nodes":"101","size_leaf_vector":"1"}},{"base_weights":[1.8755583E-2,3.7582824E-1,-8.226243E-1,5.335757E-1,-3.6945477E-2,-5.4630756E-1,-1.095947E0,7.2488666E-1,2.1418104E-1,6.812704E-2,-5.4262984E-1,-9.357936E-1,-1.822179E-1,-1.1198708E0,-4.0441912E-1,7.914911E-1,7.500763E-2,-1.3607082E-1,4.5520726E-1,4.178315E-1,-5.969377E-2,-6.5998757E-1,1.6657598E-2,-9.93956E-1,5.1438203E-3,6.423945E-3,-6.2068623E-1,-1.1430255E0,-3.664815E-1,1.3219892E-2,-7.026761E-2,8.201269E-1,-2.2605821E-1,-1.8126881E-1,4.611443E-1,-5.815475E-1,6.4547904E-2,5.289023E-1,-3.0550483E-1,-2.9612467E-2,5.4301053E-1,2.3293746E-1,-4.1225654E-1,-4.8831094E-2,-8.681597E-1,-1.0267949E0,-1.1619159E-2,1.5699404E-1,-4.8001546E-1,-6.97667E-1,-3.0317515E-4,-7.0400035E-1,-1.2197448E-1,-4.91579E-2,-1.1073342E-3,8.508275E-1,-1.6849713E-1,-3.7937954E-2,1.7955705E-5,1.8869364E-1,-6.016034E-1,6.44499E-2,-0E0,-8.264698E-1,5.1658373E-2,3.238911E-1,-6.4162415E-1,5.712548E-1,-4.405525E-2,5.8005773E-2,-6.894531E-2,6.0099655E-1,-8.210375E-3,3.3612946E-1,-5.0886315E-1,-1.2333216E-1,-7.2547656E-1,-5.4077405E-2,3.6397953E-2,-1.03131644E-1,-7.6911035E-3,-5.883931E-1,-1.1175896E-1,3.952502E-1,-1.5677302E-1,-5.9456605E-1,-0E0,-8.428945E-3,-7.794276E-1,-9.371611E-2,4.219767E-2,8.791571E-2,-1.3474293E-2,-5.5285055E-2,3.9508637E-2,-2.816954E-2,3.9763E-2,-7.404104E-3,-7.3508E-2,-1.0495162E-2,-9.061509E-2,5.1700424E-2,-1.5695581E-2,-8.7372705E-2,-3.7955504E-3,6.289934E-2,-1.4761402E-2,-2.4405567E-2,3.4263868E-2,6.580483E-2,-0E0,-1.8927561E-2,4.768681E-2,-8.0795586E-2,3.997497E-3,-2.7593225E-2,5.030712E-2,-1.1058676E-2,-8.2924575E-2,-2.4495516E-2,-7.3201686E-2,-0E0,6.5480426E-2,4.8342906E-2,-4.2459063E-2,-9.738668E-3,-6.916711E-2,-2.2599475E-2,-8.8177375E-2],"categories":[],"categories_nodes":[],"categories_segments":[],"categories_sizes":[],"default_left":[0,0,0,0,0,0,0,0,0,0,0,0,0,0,0,0,0,0,0,0,0,0,0,0,0,0,0,0,0,0,0,0,0,0,0,0,0,0,0,0,0,0,0,0,0,0,0,0,0,0,0,0,0,0,0,0,0,0,0,0,0,0,0,0,0,0,0,0,0,0,0,0,0,0,0,0,0,0,0,0,0,0,0,0,0,0,0,0,0,0,0,0,0,0,0,0,0,0,0,0,0,0,0,0,0,0,0,0,0,0,0,0,0,0,0,0,0,0,0,0,0,0,0,0,0,0,0,0,0],"id":8,"left_children":[1,3,5,7,9,11,13,15,17,19,21,23,25,27,29,31,33,35,37,39,41,43,-1,45,-1,47,49,51,53,-1,-1,55,57,59,61,63,65,67,69,-1,71,73,75,77,79,81,-1,83,85,87,-1,89,-1,-1,-1,91,93,-1,-1,95,97,-1,-1,99,-1,101,103,105,-1,107,-1,109,-1,111,113,115,117,-1,-1,-1,-1,119,-1,121,123,125,-1,-1,127,-1,-1,-1,-1,-1,-1,-1,-1,-1,-1,-1,-1,-1,-1,-1,-1,-1,-1,-1,-1,-1,-1,-1,-1,-1,-1,-1,-1,-1,-1,-1,-1,-1,-1,-1,-1,-1,-1,-1,-1],"loss_changes":[3.3010233E2,5.035932E1,2.2164047E1,3.341545E1,1.1718042E1,2.3447361E1,6.898346E-1,1.47153015E1,1.8439445E1,8.313139E0,3.64507E0,4.9780045E0,7.8071604E0,8.363037E-1,2.3115754E0,9.967758E0,4.009694E0,8.2986765E0,7.8732815E0,5.107809E0,1.4563919E1,3.9959183E0,0E0,1.6351929E0,0E0,5.333212E0,1.2676363E0,1.2930145E0,3.978263E-1,0E0,0E0,9.957855E0,4.4233394E-1,4.3628073E0,1.414506E0,9.454021E0,1.2870684E1,5.8954124E0,2.1444309E0,0E0,1.8368797E0,6.592413E0,5.336074E0,3.4170642E0,2.7476234E0,1.3841248E-1,0E0,4.4557714E0,9.8492E-1,9.052448E-1,0E0,9.872694E0,0E0,0E0,0E0,8.881485E0,3.594001E0,0E0,0E0,2.0464723E0,5.973635E-1,0E0,0E0,9.596596E-1,0E0,5.0935016E0,2.430293E0,5.2184486E0,0E0,1.2580255E0,0E0,1.451375E0,0E0,5.601652E0,1.9995584E0,4.184247E0,1.4313765E0,0E0,0E0,0E0,0E0,2.3599052E-1,0E0,3.33526E0,5.416959E0,3.265171E-1,0E0,0E0,3.0663776E-1,0E0,0E0,0E0,0E0,0E0,0E0,0E0,0E0,0E0,0E0,0E0,0E0,0E0,0E0,0E0,0E0,0E0,0E0,0E0,0E0,0E0,0E0,0E0,0E0,0E0,0E0,0E0,0E0,0E0,0E0,0E0,0E0,0E0,0E0,0E0,0E0,0E0,0E0,0E0,0E0],"parents":[2147483647,0,0,1,1,2,2,3,3,4,4,5,5,6,6,7,7,8,8,9,9,10,10,11,11,12,12,13,13,14,14,15,15,16,16,17,17,18,18,19,19,20,20,21,21,23,23,25,25,26,26,27,27,28,28,31,31,32,32,33,33,34,34,35,35,36,36,37,37,38,38,40,40,41,41,42,42,43,43,44,44,45,45,47,47,48,48,49,49,51,51,55,55,56,56,59,59,60,60,63,63,65,65,66,66,67,67,69,69,71,71,73,73,74,74,75,75,76,76,81,81,83,83,84,84,85,85,88,88],"right_children":[2,4,6,8,10,12,14,16,18,20,22,24,26,28,30,32,34,36,38,40,42,44,-1,46,-1,48,50,52,54,-1,-1,56,58,60,62,64,66,68,70,-1,72,74,76,78,80,82,-1,84,86,88,-1,90,-1,-1,-1,92,94,-1,-1,96,98,-1,-1,100,-1,102,104,106,-1,108,-1,110,-1,112,114,116,118,-1,-1,-1,-1,120,-1,122,124,126,-1,-1,128,-1,-1,-1,-1,-1,-1,-1,-1,-1,-1,-1,-1,-1,-1,-1,-1,-1,-1,-1,-1,-1,-1,-1,-1,-1,-1,-1,-1,-1,-1,-1,-1,-1,-1,-1,-1,-1,-1,-1,-1],"split_conditions":[1E0,1E0,2E0,-6.2591875E-1,6.161941E-1,2E0,3.8734754E-3,1E0,1E0,-1.1960039E0,1.0216166E0,1.6270204E-4,1E0,3.366912E-3,1E0,3.7630734E-1,4.7055414E-1,8.395634E-2,3.8395524E-1,-1.5009913E0,1E0,-1.4810498E0,1.6657598E-2,2.650855E-3,5.1438203E-3,1E0,4.5738975E-3,1E0,8.0890656E-1,1.3219892E-2,-7.026761E-2,5.2044463E-1,1.6412929E-1,-8.855181E-1,-6.141909E-1,3.3886225E-3,4.328107E-1,4.2712218E-1,6.386147E-1,-2.9612467E-2,1E0,3E0,1E0,-1.4910206E0,2.8639464E-3,1E0,-1.1619159E-2,2E0,1.3602711E0,-9.655403E-2,-3.0317515E-4,1.3602711E0,-1.2197448E-1,-4.91579E-2,-1.1073342E-3,5.073707E-1,1E0,-3.7937954E-2,1.7955705E-5,-6.800636E-1,0E0,6.44499E-2,-0E0,-6.7251354E-1,5.1658373E-2,2E0,2E0,3.1149137E-1,-4.405525E-2,9.996193E-1,-6.894531E-2,4.2834356E-1,-8.210375E-3,1E0,1E0,8.78199E-3,1E0,-5.4077405E-2,3.6397953E-2,-1.03131644E-1,-7.6911035E-3,1E0,-1.1175896E-1,7.636271E-1,1E0,9.5396405E-1,-0E0,-8.428945E-3,2E0,-9.371611E-2,4.219767E-2,8.791571E-2,-1.3474293E-2,-5.5285055E-2,3.9508637E-2,-2.816954E-2,3.9763E-2,-7.404104E-3,-7.3508E-2,-1.0495162E-2,-9.061509E-2,5.1700424E-2,-1.5695581E-2,-8.7372705E-2,-3.7955504E-3,6.289934E-2,-1.4761402E-2,-2.4405567E-2,3.4263868E-2,6.580483E-2,-0E0,-1.8927561E-2,4.768681E-2,-8.0795586E-2,3.997497E-3,-2.7593225E-2,5.030712E-2,-1.1058676E-2,-8.2924575E-2,-2.4495516E-2,-7.3201686E-2,-0E0,6.5480426E-2,4.8342906E-2,-4.2459063E-2,-9.738668E-3,-6.916711E-2,-2.2599475E-2,-8.8177375E-2],"split_indices":[14,8,14,4,19,13,123,3,12,4,17,32,3,42,3,50,17,17,67,17,11,17,0,87,0,1,38,9,17,0,0,106,17,18,18,103,4,59,18,0,22,16,0,17,110,8,0,8,17,4,0,17,0,0,0,45,6,0,0,17,19,0,0,18,0,10,16,68,0,17,0,49,0,16,15,102,16,0,0,0,0,2,0,4,16,18,0,0,12,0,0,0,0,0,0,0,0,0,0,0,0,0,0,0,0,0,0,0,0,0,0,0,0,0,0,0,0,0,0,0,0,0,0,0,0,0,0,0,0],"split_type":[0,0,0,0,0,0,0,0,0,0,0,0,0,0,0,0,0,0,0,0,0,0,0,0,0,0,0,0,0,0,0,0,0,0,0,0,0,0,0,0,0,0,0,0,0,0,0,0,0,0,0,0,0,0,0,0,0,0,0,0,0,0,0,0,0,0,0,0,0,0,0,0,0,0,0,0,0,0,0,0,0,0,0,0,0,0,0,0,0,0,0,0,0,0,0,0,0,0,0,0,0,0,0,0,0,0,0,0,0,0,0,0,0,0,0,0,0,0,0,0,0,0,0,0,0,0,0,0,0],"sum_hessian":[1.0907849E3,7.674285E2,3.2335635E2,5.5456506E2,2.1286346E2,1.6694426E2,1.564121E2,3.4345258E2,2.1111249E2,1.789451E2,3.391836E1,7.74917E1,8.945255E1,1.4864731E2,7.764787E0,3.10595E2,3.285758E1,8.6597946E1,1.2451454E2,4.5678974E1,1.3326613E2,2.9461704E1,4.4566565E0,7.325023E1,4.241466E0,6.514053E1,2.4312025E1,1.420792E2,6.5681114E0,3.4497795E0,4.315008E0,3.0294394E2,7.65107E0,2.0869728E1,1.1987849E1,2.4685911E1,6.1912037E1,1.1474849E2,9.766051E0,5.8801804E0,3.9798794E1,7.34092E1,5.9856922E1,8.862278E0,2.0599426E1,6.984416E1,3.4060683E0,5.196893E1,1.3171601E1,2.1013016E1,3.2990096E0,2.7383917E1,1.1469528E2,3.5164561E0,3.0516553E0,2.9445853E2,8.485407E0,3.210024E0,4.4410458E0,1.2145853E1,8.723875E0,7.590348E0,4.3975015E0,2.1067677E1,3.618235E0,4.6969402E1,1.4942636E1,1.1161836E2,3.130126E0,6.6270247E0,3.1390269E0,3.6708027E1,3.090767E0,6.648304E1,6.9261656E0,3.4202087E1,2.5654837E1,3.5883677E0,5.27391E0,1.5967007E1,4.63242E0,1.7305916E1,5.2538246E1,2.9129581E1,2.2839348E1,9.978469E0,3.193132E0,3.5708551E0,1.744216E1,2.3315462E1,4.068455E0,2.8674945E2,7.709078E0,5.1956697E0,3.289737E0,3.1600087E0,8.985844E0,3.1685038E0,5.555371E0,3.1418247E0,1.7925852E1,3.3444805E1,1.3524595E1,9.380754E0,5.561881E0,1.0391152E2,7.7068396E0,3.321283E0,3.3057413E0,3.3307064E1,3.4009635E0,1.360455E1,5.2878487E1,3.378663E0,3.5475025E0,2.9430147E1,4.7719398E0,5.0366087E0,2.0618227E1,8.499654E0,8.806262E0,1.3280056E1,1.5849525E1,5.6764565E0,1.7162891E1,3.1078153E0,6.870654E0,4.877408E0,1.2564752E1],"tree_param":{"num_deleted":"0","num_feature":"129","num_nodes":"129","size_leaf_vector":"1"}},{"base_weights":[-4.000054E-2,2.933723E-1,-8.119836E-1,4.1519338E-1,-2.5903437E-1,-9.58966E-1,-3.0070865E-1,5.741368E-1,4.940619E-2,3.056406E-1,-5.544513E-1,-6.111543E-1,-1.0724977E0,3.8150865E-1,-5.220801E-1,6.0636836E-1,-7.7228934E-1,-4.3719843E-1,2.3213246E-1,1.734972E-1,7.549909E-2,-6.6233945E-1,2.956695E-1,-6.970957E-1,5.323682E-2,-1.0934899E0,-2.2324182E-2,6.163595E-1,-4.0074382E-2,-2.2931701E-1,-8.096984E-1,3.266838E-1,7.284745E-1,-9.654435E-2,-1.6551966E-2,-5.6925243E-1,4.5943167E-2,3.8707322E-1,-2.627809E-1,-4.136053E-2,4.544586E-1,-3.6846244E-1,-1.0182065E0,-3.607772E-2,6.518104E-2,-7.5865567E-1,2.3764566E-2,-1.1190974E-1,-5.0165343E-1,2.4067661E-1,9.350666E-2,-1.4313456E-3,-8.094068E-2,3.366482E-3,-9.3553826E-2,3.9238492E-1,-8.273963E-2,7.638702E-1,-5.391842E-2,2.0065036E-2,-6.5846276E-1,4.7548285E-1,-4.8502013E-1,-7.5322646E-1,1.405549E-1,-2.6444057E-1,5.6126397E-2,7.090953E-1,-2.2905173E-2,-4.4709925E-2,-6.2177026E-1,-2.5803322E-2,-1.0803449E-1,1.0482992E-2,-8.1251174E-1,1.0024673E-2,-8.002017E-2,5.8291998E-2,-3.0143375E-2,2.3544468E-1,-5.7660043E-2,6.0237892E-2,-1.6125357E-3,9.715851E-2,5.595935E-2,-2.3111526E-2,-8.0209345E-2,5.4849423E-2,-2.6865602E-2,-1.136704E-3,-6.937883E-2,-2.7857853E-2,-9.639632E-2,3.265511E-2,-2.8096711E-2,-0E0,-3.939916E-2,8.8745E-2,-0E0,3.173664E-2,-4.4627737E-2,-1.8291881E-2,-7.322689E-2,-8.881877E-2,-2.3401218E-2,-1.0667566E-3,5.518576E-2],"categories":[],"categories_nodes":[],"categories_segments":[],"categories_sizes":[],"default_left":[0,0,0,0,0,0,0,0,0,0,0,0,0,0,0,0,0,0,0,0,0,0,0,0,0,0,0,0,0,0,0,0,0,0,0,0,0,0,0,0,0,0,0,0,0,0,0,0,0,0,0,0,0,0,0,0,0,0,0,0,0,0,0,0,0,0,0,0,0,0,0,0,0,0,0,0,0,0,0,0,0,0,0,0,0,0,0,0,0,0,0,0,0,0,0,0,0,0,0,0,0,0,0,0,0,0,0],"id":9,"left_children":[1,3,5,7,9,11,13,15,17,19,21,23,25,27,29,31,33,35,37,39,-1,41,43,45,-1,47,-1,49,-1,51,53,55,57,-1,-1,59,-1,61,63,65,67,69,71,-1,-1,73,-1,-1,75,77,-1,79,-1,-1,-1,81,-1,83,-1,-1,85,87,89,91,93,95,-1,97,-1,99,101,-1,-1,-1,103,-1,-1,-1,-1,105,-1,-1,-1,-1,-1,-1,-1,-1,-1,-1,-1,-1,-1,-1,-1,-1,-1,-1,-1,-1,-1,-1,-1,-1,-1,-1,-1],"loss_changes":[2.7814047E2,5.1248077E1,2.321347E1,3.5882584E1,2.384256E1,7.127945E0,1.270471E1,2.0594498E1,1.7495478E1,2.3584967E0,9.313877E0,8.510574E0,2.1694183E0,4.958457E0,4.311781E0,1.342247E1,6.2846375E-1,7.4237976E0,1.135873E1,2.7778172E0,0E0,7.0950813E0,4.030112E0,4.6950226E0,0E0,2.940979E-1,0E0,1.1620898E0,0E0,4.6880198E0,3.3097248E0,1.1594156E1,1.4755646E1,0E0,0E0,3.9227161E0,0E0,9.434853E0,7.6539392E0,4.3881493E0,4.115873E0,4.100197E0,4.2102432E-1,0E0,0E0,3.4340935E0,0E0,0E0,3.0513213E0,3.3074126E0,0E0,4.672269E0,0E0,0E0,0E0,1.1404392E1,0E0,9.784103E0,0E0,0E0,1.9013405E0,6.179661E0,1.0884397E0,5.116091E-1,2.1862564E0,8.261721E-1,0E0,1.8864274E0,0E0,4.560699E0,7.68486E-1,0E0,0E0,0E0,1.7596054E0,0E0,0E0,0E0,0E0,1.9471356E0,0E0,0E0,0E0,0E0,0E0,0E0,0E0,0E0,0E0,0E0,0E0,0E0,0E0,0E0,0E0,0E0,0E0,0E0,0E0,0E0,0E0,0E0,0E0,0E0,0E0,0E0,0E0],"parents":[2147483647,0,0,1,1,2,2,3,3,4,4,5,5,6,6,7,7,8,8,9,9,10,10,11,11,12,12,13,13,14,14,15,15,16,16,17,17,18,18,19,19,21,21,22,22,23,23,25,25,27,27,29,29,30,30,31,31,32,32,35,35,37,37,38,38,39,39,40,40,41,41,42,42,45,45,48,48,49,49,51,51,55,55,57,57,60,60,61,61,62,62,63,63,64,64,65,65,67,67,69,69,70,70,74,74,79,79],"right_children":[2,4,6,8,10,12,14,16,18,20,22,24,26,28,30,32,34,36,38,40,-1,42,44,46,-1,48,-1,50,-1,52,54,56,58,-1,-1,60,-1,62,64,66,68,70,72,-1,-1,74,-1,-1,76,78,-1,80,-1,-1,-1,82,-1,84,-1,-1,86,88,90,92,94,96,-1,98,-1,100,102,-1,-1,-1,104,-1,-1,-1,-1,106,-1,-1,-1,-1,-1,-1,-1,-1,-1,-1,-1,-1,-1,-1,-1,-1,-1,-1,-1,-1,-1,-1,-1,-1,-1,-1,-1],"split_conditions":[1E0,3E0,1.2160468E0,1E0,-1.2367243E0,1E0,2E0,5.13436E-1,1.71757E-1,3.3381372E-3,3.203718E-3,2.650855E-3,4.518999E-3,1E0,2E0,1.4751132E-1,3.3197078E-1,2.538385E-3,1E0,2.0604362E-1,7.549909E-2,-8.9255404E-1,-8.4599304E-1,1.717118E-2,5.323682E-2,3.3886225E-3,-2.2324182E-2,2.6870728E-3,-4.0074382E-2,1E0,1.7545655E0,5.8384883E-1,4.6403295E-1,-9.654435E-2,-1.6551966E-2,-1.2445614E0,4.5943167E-2,4.3347225E-1,1E0,-9.7851676E-1,2.522091E-1,1E0,-1.4910206E0,-3.607772E-2,6.518104E-2,-8.75E-1,2.3764566E-2,-1.1190974E-1,1E0,1E0,9.350666E-2,1E0,-8.094068E-2,3.366482E-3,-9.3553826E-2,1E0,-8.273963E-2,-8.702409E-1,-5.391842E-2,2.0065036E-2,1E0,3.0049488E-1,-5.717169E-4,1E0,1E0,-1.6505279E-2,5.6126397E-2,3.262053E-1,-2.2905173E-2,7.319082E-2,-1.6505279E-2,-2.5803322E-2,-1.0803449E-1,1.0482992E-2,8.78199E-3,1.0024673E-2,-8.002017E-2,5.8291998E-2,-3.0143375E-2,1.4100994E0,-5.7660043E-2,6.0237892E-2,-1.6125357E-3,9.715851E-2,5.595935E-2,-2.3111526E-2,-8.0209345E-2,5.4849423E-2,-2.6865602E-2,-1.136704E-3,-6.937883E-2,-2.7857853E-2,-9.639632E-2,3.265511E-2,-2.8096711E-2,-0E0,-3.939916E-2,8.8745E-2,-0E0,3.173664E-2,-4.4627737E-2,-1.8291881E-2,-7.322689E-2,-8.881877E-2,-2.3401218E-2,-1.0667566E-3,5.518576E-2],"split_indices":[14,16,17,2,4,11,9,27,17,59,106,87,80,3,14,17,17,104,20,19,0,4,18,33,0,103,0,68,0,3,18,33,43,0,0,4,0,67,21,18,68,13,17,0,0,19,0,0,2,2,0,1,0,0,0,9,0,4,0,0,5,110,19,9,3,19,0,102,0,19,19,0,0,0,102,0,0,0,0,4,0,0,0,0,0,0,0,0,0,0,0,0,0,0,0,0,0,0,0,0,0,0,0,0,0,0,0],"split_type":[0,0,0,0,0,0,0,0,0,0,0,0,0,0,0,0,0,0,0,0,0,0,0,0,0,0,0,0,0,0,0,0,0,0,0,0,0,0,0,0,0,0,0,0,0,0,0,0,0,0,0,0,0,0,0,0,0,0,0,0,0,0,0,0,0,0,0,0,0,0,0,0,0,0,0,0,0,0,0,0,0,0,0,0,0,0,0,0,0,0,0,0,0,0,0,0,0,0,0,0,0,0,0,0,0,0,0],"sum_hessian":[1.0728484E3,7.5092126E2,3.219272E2,6.162054E2,1.3471588E2,2.4717159E2,7.4755585E1,4.2777502E2,1.8843037E2,4.610723E1,8.860865E1,6.73263E1,1.7984529E2,1.7494911E1,5.7260674E1,4.199938E2,7.7812157E0,4.9771034E1,1.3865933E2,4.008588E1,6.0213494E0,7.9518234E1,9.090411E0,6.4153854E1,3.1724453E0,1.7426955E2,5.5757394E0,1.4206039E1,3.288872E0,3.211157E1,2.5149103E1,1.3235495E2,2.8763885E2,3.983767E0,3.7974486E0,4.4752045E1,5.0189896E0,1.064173E2,3.224204E1,2.4446392E1,1.563949E1,4.8165485E1,3.1352753E1,3.080151E0,6.0102606E0,6.099721E1,3.1566443E0,1.6346425E2,1.0805295E1,9.886519E0,4.3195195E0,2.6057323E1,6.0542464E0,3.5425591E0,2.1606544E1,1.27805695E2,4.549248E0,2.814488E2,6.1900854E0,4.011794E0,4.074025E1,9.837789E1,8.039404E0,1.3095825E1,1.9146212E1,1.9601116E1,4.8452754E0,1.1392045E1,4.2474456E0,2.3381895E1,2.4783588E1,4.04822E0,2.7304531E1,3.2497988E0,5.7747414E1,4.352396E0,6.4528995E0,5.9889455E0,3.8975742E0,2.0006603E1,6.0507197E0,8.332111E1,4.4484585E1,1.3185754E2,1.4959123E2,1.30487175E1,2.7691532E1,9.0668015E1,7.7098746E0,3.896292E0,4.1431117E0,7.028216E0,6.06761E0,1.4074366E1,5.0718455E0,7.6468534E0,1.1954263E1,8.222186E0,3.1698585E0,1.2605632E1,1.0776263E1,7.303582E0,1.7480007E1,4.9020638E1,8.726773E0,1.3249771E1,6.756833E0],"tree_param":{"num_deleted":"0","num_feature":"129","num_nodes":"107","size_leaf_vector":"1"}},{"base_weights":[-1.5734969E-2,2.865496E-1,-7.220801E-1,-1.2060626E-3,4.5438161E-1,-9.1161317E-1,-2.9224655E-1,2.4385422E-1,-2.6836285E-1,6.5424573E-1,1.4544216E-1,-6.6749686E-1,-1.1044416E0,-1.12157725E-1,-8.7609017E-1,4.8447606E-1,-6.030593E-2,-3.6568913E-1,5.6758404E-1,6.9025934E-1,-2.259361E-1,-8.096595E-2,4.3066472E-1,-7.2622573E-1,3.4768272E-2,-1.1355864E0,-4.2991155E-1,-2.739578E-1,5.605964E-1,-3.157029E-1,-1.0130755E-1,2.0359017E-2,7.3135287E-1,6.1185975E-2,-6.201559E-1,-1.5355399E-1,-5.634632E-1,9.369362E-1,-2.5054498E-2,1.0814871E-1,5.8680373E-1,-5.2939802E-2,1.2743077E-2,2.5645256E-1,-4.9351126E-1,5.957841E-1,-9.8013036E-2,-8.890269E-1,-3.2413507E-1,-1.1574953E-1,-3.10833E-2,-2.3740342E-4,-5.670002E-2,-1.0249005E-1,-7.150031E-1,9.068846E-2,7.653176E-2,-4.6862355E-3,-3.901292E-2,3.434094E-1,-1.7414767E-1,8.774017E-1,-2.0584705E-1,2.5468758E-1,-1.9316342E-1,-8.6292565E-2,-3.0036229E-3,-2.6164305E-1,3.886722E-1,-6.833083E-1,3.0194795E-2,2.2995356E-2,1.0764267E-1,2.2751473E-1,7.505528E-1,4.6568117E-1,-4.4039544E-1,-5.7440555E-1,2.745652E-2,6.720633E-1,-3.1733282E-2,-6.219792E-2,1.2178507E-1,-9.3514377E-1,-2.3204304E-2,1.8700454E-2,-4.0007177E-1,-2.3736656E-1,5.860739E-2,-1.4005775E-2,-8.759733E-2,4.7515422E-2,-3.6191855E-2,-1.3925232E-2,5.932328E-2,1.9376444E-2,-4.4009235E-2,1.1807261E-2,9.4522245E-2,5.6312867E-3,-3.7114013E-2,7.252364E-3,7.0566334E-2,-8.443192E-2,5.6265956E-3,1.0398432E-2,-4.6877827E-2,7.6094404E-2,-1.9962538E-2,-7.633856E-2,1.0290985E-2,7.1773864E-2,-4.761812E-2,3.4592766E-2,-4.9441706E-2,7.846119E-2,-3.167417E-2,1.3159396E-2,6.988817E-2,9.477641E-3,-6.1564293E-2,-6.643751E-2,1.9733718E-2,3.19135E-2,9.4497226E-2,3.2511868E-2,-2.9033188E-2,-9.670907E-2,-1.1995298E-2,-6.969373E-2,-6.8430565E-3,2.6154423E-2,-4.8158564E-2],"categories":[],"categories_nodes":[],"categories_segments":[],"categories_sizes":[],"default_left":[0,0,0,0,0,0,0,0,0,0,0,0,0,0,0,0,0,0,0,0,0,0,0,0,0,0,0,0,0,0,0,0,0,0,0,0,0,0,0,0,0,0,0,0,0,0,0,0,0,0,0,0,0,0,0,0,0,0,0,0,0,0,0,0,0,0,0,0,0,0,0,0,0,0,0,0,0,0,0,0,0,0,0,0,0,0,0,0,0,0,0,0,0,0,0,0,0,0,0,0,0,0,0,0,0,0,0,0,0,0,0,0,0,0,0,0,0,0,0,0,0,0,0,0,0,0,0,0,0,0,0,0,0],"id":10,"left_children":[1,3,5,7,9,11,13,15,17,19,21,23,25,27,29,31,33,35,37,39,41,43,45,47,-1,49,51,53,55,57,-1,59,61,63,65,67,69,71,-1,-1,73,-1,-1,75,77,79,81,83,85,-1,-1,-1,-1,87,89,-1,91,-1,-1,93,95,97,99,101,103,-1,-1,105,107,109,111,-1,-1,113,115,117,119,121,-1,123,-1,-1,125,127,-1,-1,129,131,-1,-1,-1,-1,-1,-1,-1,-1,-1,-1,-1,-1,-1,-1,-1,-1,-1,-1,-1,-1,-1,-1,-1,-1,-1,-1,-1,-1,-1,-1,-1,-1,-1,-1,-1,-1,-1,-1,-1,-1,-1,-1,-1,-1,-1],"loss_changes":[2.2322891E2,3.5402134E1,2.4341232E1,1.816692E1,2.8103722E1,7.013733E0,1.0225972E1,1.0736653E1,1.1624921E1,9.531624E0,1.2254093E1,7.33189E0,2.8570557E-1,9.579327E0,3.773346E-1,9.1824875E0,4.7789617E0,4.684101E0,5.63772E0,8.20903E0,1.7998344E0,1.5487411E1,7.5817585E0,5.3392105E0,0E0,3.3651733E-1,6.1816025E-1,4.8743587E0,2.5091968E0,9.3931794E-2,0E0,2.2976973E0,8.020241E0,3.092851E0,1.5963812E0,4.1693153E0,4.5013275E0,1.1845589E-2,0E0,0E0,1.2292511E1,0E0,0E0,9.80522E0,3.757883E0,5.375351E0,3.0235605E0,1.1191292E0,1.7018716E0,0E0,0E0,0E0,0E0,5.6121073E0,1.1289253E0,0E0,2.7383246E0,0E0,0E0,2.0337653E0,2.5907953E0,1.8448105E0,5.6010675E-1,2.6171174E0,4.722554E0,0E0,0E0,4.491706E0,3.327281E0,3.6051025E0,6.2544575E0,0E0,0E0,7.1234164E0,6.5194016E0,3.400567E0,1.8021736E0,3.80029E0,0E0,4.526785E0,0E0,0E0,2.0189838E0,1.0789337E0,0E0,0E0,2.9254112E0,6.47216E0,0E0,0E0,0E0,0E0,0E0,0E0,0E0,0E0,0E0,0E0,0E0,0E0,0E0,0E0,0E0,0E0,0E0,0E0,0E0,0E0,0E0,0E0,0E0,0E0,0E0,0E0,0E0,0E0,0E0,0E0,0E0,0E0,0E0,0E0,0E0,0E0,0E0,0E0,0E0,0E0,0E0,0E0,0E0,0E0,0E0],"parents":[2147483647,0,0,1,1,2,2,3,3,4,4,5,5,6,6,7,7,8,8,9,9,10,10,11,11,12,12,13,13,14,14,15,15,16,16,17,17,18,18,19,19,20,20,21,21,22,22,23,23,25,25,26,26,27,27,28,28,29,29,31,31,32,32,33,33,34,34,35,35,36,36,37,37,40,40,43,43,44,44,45,45,46,46,47,47,48,48,53,53,54,54,56,56,59,59,60,60,61,61,62,62,63,63,64,64,67,67,68,68,69,69,70,70,73,73,74,74,75,75,76,76,77,77,79,79,82,82,83,83,86,86,87,87],"right_children":[2,4,6,8,10,12,14,16,18,20,22,24,26,28,30,32,34,36,38,40,42,44,46,48,-1,50,52,54,56,58,-1,60,62,64,66,68,70,72,-1,-1,74,-1,-1,76,78,80,82,84,86,-1,-1,-1,-1,88,90,-1,92,-1,-1,94,96,98,100,102,104,-1,-1,106,108,110,112,-1,-1,114,116,118,120,122,-1,124,-1,-1,126,128,-1,-1,130,132,-1,-1,-1,-1,-1,-1,-1,-1,-1,-1,-1,-1,-1,-1,-1,-1,-1,-1,-1,-1,-1,-1,-1,-1,-1,-1,-1,-1,-1,-1,-1,-1,-1,-1,-1,-1,-1,-1,-1,-1,-1,-1,-1,-1,-1],"split_conditions":[1E0,5.445069E-2,9.518211E-1,-1.0738428E0,-4.2231694E-1,2E0,1.5729809E0,1E0,3.203718E-3,5.054326E-1,1.0216166E0,2.650855E-3,2.8176461E-3,2.6870728E-3,2E0,-1.2753721E0,6.614225E-1,1E0,5.261108E-1,-1.2367243E0,6.061673E-1,1E0,9.621754E-1,2E0,3.4768272E-2,3.366912E-3,-1.3132082E0,1E0,2E0,1.4154624E0,-1.0130755E-1,1E0,1.8481728E-1,-1.2375236E0,8.78199E-3,2.60108E-4,2.8639464E-3,1E0,-2.5054498E-2,1.0814871E-1,4.7055414E-1,-5.2939802E-2,1.2743077E-2,2E0,5.078922E-3,4.459887E-1,1E0,3.3886225E-3,-4.9064597E-1,-1.1574953E-1,-3.10833E-2,-2.3740342E-4,-5.670002E-2,2.538385E-3,1.1763227E0,9.068846E-2,1E0,-4.6862355E-3,-3.901292E-2,-1.3082229E0,1E0,-3.7237948E-1,3.1148106E-1,3.3381372E-3,-1.2347326E0,-8.6292565E-2,-3.0036229E-3,2E0,4.086243E-1,2.6992923E-1,3.046297E-1,2.2995356E-2,1.0764267E-1,2E0,4.500361E-1,6.2163585E-1,1E0,7.592254E-3,2.745652E-2,7.319082E-2,-3.1733282E-2,-6.219792E-2,2E0,1.000331E-3,-2.3204304E-2,1.8700454E-2,3.1589335E-1,2E0,5.860739E-2,-1.4005775E-2,-8.759733E-2,4.7515422E-2,-3.6191855E-2,-1.3925232E-2,5.932328E-2,1.9376444E-2,-4.4009235E-2,1.1807261E-2,9.4522245E-2,5.6312867E-3,-3.7114013E-2,7.252364E-3,7.0566334E-2,-8.443192E-2,5.6265956E-3,1.0398432E-2,-4.6877827E-2,7.6094404E-2,-1.9962538E-2,-7.633856E-2,1.0290985E-2,7.1773864E-2,-4.761812E-2,3.4592766E-2,-4.9441706E-2,7.846119E-2,-3.167417E-2,1.3159396E-2,6.988817E-2,9.477641E-3,-6.1564293E-2,-6.643751E-2,1.9733718E-2,3.19135E-2,9.4497226E-2,3.2511868E-2,-2.9033188E-2,-9.670907E-2,-1.1995298E-2,-6.969373E-2,-6.8430565E-3,2.6154423E-2,-4.8158564E-2],"split_indices":[14,17,17,4,4,14,4,11,106,45,17,87,58,68,8,4,19,0,106,4,17,2,4,13,0,42,17,3,9,17,0,5,102,4,102,45,110,8,0,0,17,0,0,10,107,67,16,103,18,0,0,0,0,104,17,0,16,0,0,17,0,19,102,59,4,0,0,16,45,4,110,0,0,13,43,17,15,67,0,19,0,0,8,49,0,0,18,6,0,0,0,0,0,0,0,0,0,0,0,0,0,0,0,0,0,0,0,0,0,0,0,0,0,0,0,0,0,0,0,0,0,0,0,0,0,0,0,0,0,0,0,0,0],"split_type":[0,0,0,0,0,0,0,0,0,0,0,0,0,0,0,0,0,0,0,0,0,0,0,0,0,0,0,0,0,0,0,0,0,0,0,0,0,0,0,0,0,0,0,0,0,0,0,0,0,0,0,0,0,0,0,0,0,0,0,0,0,0,0,0,0,0,0,0,0,0,0,0,0,0,0,0,0,0,0,0,0,0,0,0,0,0,0,0,0,0,0,0,0,0,0,0,0,0,0,0,0,0,0,0,0,0,0,0,0,0,0,0,0,0,0,0,0,0,0,0,0,0,0,0,0,0,0,0,0,0,0,0,0],"sum_hessian":[1.037404E3,7.280615E2,3.093425E2,2.69451E2,4.5861057E2,2.1140738E2,9.793512E1,1.4052415E2,1.2892683E2,2.7555167E2,1.830589E2,1.0140106E2,1.10006325E2,7.8623184E1,1.9311935E1,7.731641E1,6.3207745E1,1.1760438E2,1.1322447E1,2.6565866E2,9.892981E0,1.0345265E2,7.960624E1,9.702512E1,4.375933E0,1.02396095E2,7.610231E0,6.541128E1,1.3211906E1,6.5333853E0,1.2778551E1,2.8490501E1,4.88259E1,5.4717773E1,8.489973E0,6.0414375E1,5.7190002E1,7.484745E0,3.8377018E0,4.744803E1,2.1821065E2,4.4025583E0,5.4904222E0,5.760715E1,4.5845505E1,6.041769E1,1.9188549E1,6.543758E1,3.1587551E1,9.805629E1,4.339806E0,3.0128381E0,4.5973926E0,5.0812756E1,1.4598519E1,5.5447965E0,7.66711E0,3.1212175E0,3.4121678E0,9.749616E0,1.8740887E1,4.2556084E1,6.269817E0,3.1296303E1,2.342147E1,4.5850935E0,3.9048798E0,5.2252487E1,8.161888E0,4.722152E1,9.968484E0,3.0973554E0,4.3873897E0,7.149927E1,1.4671138E2,4.543556E1,1.2171594E1,4.2507397E1,3.3381076E0,5.6835308E1,3.5823824E0,3.6421254E0,1.5546425E1,5.9420776E1,6.016798E0,3.158675E0,2.8428875E1,4.4803024E1,6.009733E0,4.9652963E0,9.633223E0,3.9600272E0,3.7070827E0,3.7925227E0,5.957093E0,8.160771E0,1.0580115E1,4.50917E0,3.8046913E1,3.2103603E0,3.0594566E0,2.5757147E1,5.539156E0,3.955699E0,1.946577E1,1.9442497E1,3.280999E1,4.383893E0,3.7779953E0,4.307739E1,4.14413E0,3.6035507E0,6.3649335E0,6.3333073E1,8.166199E0,1.4329182E2,3.4195483E0,2.1426117E1,2.400944E1,3.3148377E0,8.856756E0,3.868373E1,3.8236685E0,2.8727982E1,2.8107327E1,1.1138082E1,4.4083433E0,5.634464E1,3.0761373E0,1.2516974E1,1.5911901E1,1.4496056E1,3.0306967E1],"tree_param":{"num_deleted":"0","num_feature":"129","num_nodes":"133","size_leaf_vector":"1"}},{"base_weights":[-2.4031948E-2,2.7151355E-1,-7.3061025E-1,3.7151134E-1,-2.9356188E-1,-4.7038156E-1,-1.0011563E0,5.2963287E-1,1.1915062E-1,-3.5262483E-1,4.0784445E-1,-8.0757713E-1,-1.7777702E-1,-1.0770466E0,-4.850031E-1,3.4708965E-1,8.3495414E-1,-8.301405E-2,5.376339E-1,1.9366807E-1,-4.254372E-1,5.551172E-2,3.3239294E-3,-8.4097314E-1,-1.1625083E-3,-8.787941E-2,-7.1515046E-2,-1.1036566E0,-8.573852E-3,1.5017158E-1,-9.190692E-2,4.9842215E-1,2.090579E-3,9.089698E-1,6.929317E-2,-2.167912E-1,4.3523732E-1,6.136088E-1,-1.0911612E-1,-2.4531478E-2,4.1411687E-2,-7.497131E-2,-2.6657337E-1,-8.794162E-1,-1.4061527E-2,-1.6517867E-1,8.397258E-2,-1.1387693E-1,-4.194374E-1,5.8574934E-2,-3.5758335E-2,5.798181E-1,-1.2203758E-1,-1.307604E-1,5.117541E-1,9.4715035E-1,-1.3606581E-3,-3.018903E-1,5.077919E-2,-3.0455263E-2,-5.4855746E-1,9.384795E-1,-1.22624665E-1,6.443938E-1,-2.5471447E-3,-5.202849E-2,4.2732712E-2,1.9301986E-2,-2.3723608E-2,-3.580514E-1,4.439452E-2,-9.178344E-2,-1.6547993E-2,-2.2506982E-1,3.9555274E-2,-8.5836893E-4,-5.7549298E-2,6.2110186E-2,-3.8386963E-2,6.815736E-2,-7.137429E-2,2.2168187E-2,-3.399753E-2,8.993297E-2,-3.1791914E-2,9.756162E-2,9.4719324E-4,-3.8172733E-2,-3.4785755E-3,-2.8396657E-2,3.9723903E-2,-8.3609894E-2,-1.3683209E-2,1.1894669E-1,-6.0403817E-3,-5.2348413E-2,9.851252E-3,6.783288E-2,7.295538E-4,2.628891E-2,-4.0883806E-2,-2.9832682E-2,3.2728206E-2],"categories":[],"categories_nodes":[],"categories_segments":[],"categories_sizes":[],"default_left":[0,0,0,0,0,0,0,0,0,0,0,0,0,0,0,0,0,0,0,0,0,0,0,0,0,0,0,0,0,0,0,0,0,0,0,0,0,0,0,0,0,0,0,0,0,0,0,0,0,0,0,0,0,0,0,0,0,0,0,0,0,0,0,0,0,0,0,0,0,0,0,0,0,0,0,0,0,0,0,0,0,0,0,0,0,0,0,0,0,0,0,0,0,0,0,0,0,0,0,0,0,0,0],"id":11,"left_children":[1,3,5,7,9,11,13,15,17,19,21,23,25,27,29,31,33,35,37,39,41,-1,-1,43,-1,45,-1,47,-1,49,-1,51,53,55,57,59,61,63,65,67,-1,-1,69,71,-1,73,-1,-1,75,-1,-1,77,79,81,83,85,-1,87,-1,89,91,93,95,97,-1,-1,-1,-1,-1,99,-1,-1,-1,101,-1,-1,-1,-1,-1,-1,-1,-1,-1,-1,-1,-1,-1,-1,-1,-1,-1,-1,-1,-1,-1,-1,-1,-1,-1,-1,-1,-1,-1],"loss_changes":[2.1704044E2,4.1851765E1,1.9549225E1,2.4603867E1,5.2205477E0,1.55054245E1,3.4946747E0,2.0043915E1,2.1034584E1,4.5620317E0,4.4346023E-1,1.8664207E0,4.164795E0,2.781845E0,7.8609443E0,1.2813595E1,7.589157E0,1.2083535E1,4.2894936E0,8.0270183E-1,3.9820995E0,0E0,0E0,1.3338203E0,0E0,6.5433173E0,0E0,8.317566E-1,0E0,3.955462E0,0E0,8.969803E0,5.6795774E0,4.628639E0,3.367825E0,8.361763E0,1.0615814E1,1.5650558E0,3.4911277E0,7.0138246E-1,0E0,0E0,5.1792955E0,1.1238251E0,0E0,3.0728354E0,0E0,0E0,7.1429014E-1,0E0,0E0,7.0284157E0,1.28878765E1,5.178844E0,6.790518E0,3.1314087E0,0E0,1.500895E-1,0E0,1.045119E1,5.2394505E0,5.2694683E0,2.0626006E0,1.4252415E0,0E0,0E0,0E0,0E0,0E0,2.474944E0,0E0,0E0,0E0,3.473363E0,0E0,0E0,0E0,0E0,0E0,0E0,0E0,0E0,0E0,0E0,0E0,0E0,0E0,0E0,0E0,0E0,0E0,0E0,0E0,0E0,0E0,0E0,0E0,0E0,0E0,0E0,0E0,0E0,0E0],"parents":[2147483647,0,0,1,1,2,2,3,3,4,4,5,5,6,6,7,7,8,8,9,9,10,10,11,11,12,12,13,13,14,14,15,15,16,16,17,17,18,18,19,19,20,20,23,23,25,25,27,27,29,29,31,31,32,32,33,33,34,34,35,35,36,36,37,37,38,38,39,39,42,42,43,43,45,45,48,48,51,51,52,52,53,53,54,54,55,55,57,57,59,59,60,60,61,61,62,62,63,63,69,69,73,73],"right_children":[2,4,6,8,10,12,14,16,18,20,22,24,26,28,30,32,34,36,38,40,42,-1,-1,44,-1,46,-1,48,-1,50,-1,52,54,56,58,60,62,64,66,68,-1,-1,70,72,-1,74,-1,-1,76,-1,-1,78,80,82,84,86,-1,88,-1,90,92,94,96,98,-1,-1,-1,-1,-1,100,-1,-1,-1,102,-1,-1,-1,-1,-1,-1,-1,-1,-1,-1,-1,-1,-1,-1,-1,-1,-1,-1,-1,-1,-1,-1,-1,-1,-1,-1,-1,-1,-1],"split_conditions":[1E0,1E0,2E0,-6.6663915E-1,3.9036016E-3,2E0,1.3602711E0,3.626736E-1,1.0296745E0,-1.2703851E0,-1.9315706E-1,2.970979E-4,2.4604167E-1,2.5070645E-3,1.5322605E0,1E0,2E0,8.78199E-3,1.4536837E0,1.424812E-2,-6.299246E-1,5.551172E-2,3.3239294E-3,3.3886225E-3,-1.1625083E-3,2.8639464E-3,-7.1515046E-2,2.8176461E-3,-8.573852E-3,1E0,-9.190692E-2,2E0,4.5738975E-3,4.0327004E-1,9.7176266E-1,1E0,3.212244E-1,3.925735E-1,5.456493E-1,1E0,4.1411687E-2,-7.497131E-2,5.078922E-3,1.6270204E-4,-1.4061527E-2,2.650855E-3,8.397258E-2,-1.1387693E-1,8.125E-1,5.8574934E-2,-3.5758335E-2,5.499872E-1,-3.41057E-1,-1.2375236E0,3.8068748E-1,5.307517E-1,-1.3606581E-3,7.319082E-2,5.077919E-2,6.2163585E-1,7.30795E-2,2.709005E-1,1E0,3.301836E-1,-2.5471447E-3,-5.202849E-2,4.2732712E-2,1.9301986E-2,-2.3723608E-2,-9.2356104E-1,4.439452E-2,-9.178344E-2,-1.6547993E-2,1.0084876E-2,3.9555274E-2,-8.5836893E-4,-5.7549298E-2,6.2110186E-2,-3.8386963E-2,6.815736E-2,-7.137429E-2,2.2168187E-2,-3.399753E-2,8.993297E-2,-3.1791914E-2,9.756162E-2,9.4719324E-4,-3.8172733E-2,-3.4785755E-3,-2.8396657E-2,3.9723903E-2,-8.3609894E-2,-1.3683209E-2,1.1894669E-1,-6.0403817E-3,-5.2348413E-2,9.851252E-3,6.783288E-2,7.295538E-4,2.628891E-2,-4.0883806E-2,-2.9832682E-2,3.2728206E-2],"split_indices":[14,3,14,4,43,13,17,17,17,4,17,121,110,34,4,9,8,102,17,19,17,0,0,103,0,110,0,58,0,16,0,12,38,107,17,2,102,43,19,13,0,0,107,32,0,87,0,0,19,0,0,33,17,4,38,106,0,19,0,17,18,30,16,110,0,0,0,0,0,18,0,0,0,117,0,0,0,0,0,0,0,0,0,0,0,0,0,0,0,0,0,0,0,0,0,0,0,0,0,0,0,0,0],"split_type":[0,0,0,0,0,0,0,0,0,0,0,0,0,0,0,0,0,0,0,0,0,0,0,0,0,0,0,0,0,0,0,0,0,0,0,0,0,0,0,0,0,0,0,0,0,0,0,0,0,0,0,0,0,0,0,0,0,0,0,0,0,0,0,0,0,0,0,0,0,0,0,0,0,0,0,0,0,0,0,0,0,0,0,0,0,0,0,0,0,0,0,0,0,0,0,0,0,0,0,0,0,0,0],"sum_hessian":[1.0313165E3,7.2879834E2,3.0251822E2,6.205336E2,1.0826473E2,1.599715E2,1.4254672E2,3.7855286E2,2.4198074E2,1.0182225E2,6.4424825E0,7.089312E1,8.9078384E1,1.2031612E2,2.2230604E1,2.4246466E2,1.360882E2,1.651609E2,7.681985E1,1.1032851E1,9.07894E1,3.0492551E0,3.3932273E0,6.770069E1,3.1924245E0,8.0458626E1,8.619754E0,1.1663114E2,3.6849735E0,9.993192E0,1.22374115E1,1.6709877E2,7.53659E1,1.2329054E2,1.2797656E1,1.3327745E2,3.1883442E1,6.906612E1,7.7537303E0,7.1032934E0,3.9295578E0,2.4754236E1,6.6035164E1,6.3073116E1,4.6275764E0,7.740392E1,3.0547037E0,1.082714E2,8.359743E0,5.154188E0,4.839003E0,1.4809401E2,1.9004763E1,6.198593E1,1.3379964E1,1.18392746E2,4.8977985E0,7.4821815E0,5.3154745E0,8.833363E1,4.494382E1,1.5421757E1,1.6461685E1,6.60096E1,3.056522E0,4.5631223E0,3.190608E0,3.4622233E0,3.6410701E0,6.038564E1,5.649523E0,5.8635387E1,4.4377303E0,7.225883E1,5.1450987E0,3.63928E0,4.7204638E0,1.4347345E2,4.6205616E0,7.729964E0,1.1274798E1,2.282266E1,3.916327E1,8.972999E0,4.4069653E0,1.1464393E2,3.7488189E0,4.150653E0,3.331529E0,5.6450947E1,3.1882687E1,2.3892193E1,2.1051628E1,1.1794982E1,3.626775E0,4.0689983E0,1.2392687E1,6.2276615E1,3.7329824E0,3.1536238E0,5.7232018E1,6.558155E1,6.67728E0],"tree_param":{"num_deleted":"0","num_feature":"129","num_nodes":"103","size_leaf_vector":"1"}},{"base_weights":[-5.083795E-3,2.4939269E-1,-6.7180103E-1,3.985256E-1,-1.4514114E-1,-8.330383E-1,-3.087431E-1,4.6337223E-1,-6.1785977E-2,-4.7835197E-2,-9.0040785E-1,-5.3325033E-1,-9.1461587E-1,1.7733376E-1,-5.5059797E-1,5.2582014E-1,-3.4978926E-2,-1.9693753E-1,5.723046E-1,-1.4283769E-1,1.2118795E-1,3.3049718E-3,-1.0615005E-1,-7.3002636E-1,-1.9431649E-1,-9.3267435E-1,-3.041108E-1,-2.4585803E-1,5.615099E-1,-2.4220759E-1,-8.7818146E-1,5.536154E-1,-6.381779E-1,3.0552185E-1,-4.591094E-1,-3.04015E-1,4.955597E-2,7.904004E-2,4.5193918E-4,6.50643E-2,-4.069926E-1,-7.96518E-1,-1.1812886E-2,-6.742222E-2,1.20441385E-1,-9.496794E-1,-3.1678252E-2,-6.0146082E-2,1.51256835E-2,-4.9336586E-2,8.5047044E-2,7.644499E-1,-1.6894361E-2,-3.9288503E-1,3.0414948E-1,-9.733425E-2,-1.1104106E-2,6.500856E-1,2.3120673E-1,-9.661385E-2,2.140546E-3,4.1380656E-1,-2.5337402E-2,-7.02051E-1,2.617772E-2,1.3917226E-1,-4.3675554E-1,2.3319632E-1,-1.8421967E-1,-5.141104E-1,5.3007204E-2,-1.5315296E-2,-8.494546E-2,4.5673218E-2,-1.2662026E-1,-1.02648415E-1,-6.5007824E-1,-8.19635E-3,2.2812452E-2,8.7694846E-2,2.1713147E-2,-6.155602E-2,-8.0127575E-2,-0E0,4.4965487E-2,6.782203E-2,-4.286974E-2,4.55037E-2,-1.5363245E-2,5.048826E-2,2.1484275E-3,-8.076279E-2,-2.6342949E-2,-5.159609E-3,3.733511E-2,-5.132063E-2,-1.085637E-3,4.2944703E-2,-2.7725496E-3,-4.2783745E-2,2.7673928E-2,1.6540043E-2,-6.318816E-2,3.1009493E-2,-4.0356018E-2,-7.329142E-2,8.7776175E-3,3.6018487E-2,-4.3063536E-2],"categories":[],"categories_nodes":[],"categories_segments":[],"categories_sizes":[],"default_left":[0,0,0,0,0,0,0,0,0,0,0,0,0,0,0,0,0,0,0,0,0,0,0,0,0,0,0,0,0,0,0,0,0,0,0,0,0,0,0,0,0,0,0,0,0,0,0,0,0,0,0,0,0,0,0,0,0,0,0,0,0,0,0,0,0,0,0,0,0,0,0,0,0,0,0,0,0,0,0,0,0,0,0,0,0,0,0,0,0,0,0,0,0,0,0,0,0,0,0,0,0,0,0,0,0,0,0,0,0],"id":12,"left_children":[1,3,5,7,9,11,13,15,17,19,21,23,25,27,29,31,33,35,37,39,-1,-1,-1,41,43,45,47,49,51,53,55,57,59,61,63,65,-1,-1,-1,67,69,71,-1,-1,73,75,-1,-1,-1,-1,77,79,-1,81,83,-1,-1,85,87,-1,-1,89,-1,91,-1,93,95,97,99,101,-1,-1,-1,-1,103,-1,105,-1,-1,-1,-1,107,-1,-1,-1,-1,-1,-1,-1,-1,-1,-1,-1,-1,-1,-1,-1,-1,-1,-1,-1,-1,-1,-1,-1,-1,-1,-1,-1],"loss_changes":[1.7277898E2,4.3609207E1,1.5326828E1,1.6152573E1,1.4788637E1,2.6067047E0,1.1369217E1,1.4762924E1,6.3708773E0,2.2824045E1,3.7077255E0,2.7405853E0,3.436203E-1,6.080719E0,5.4278564E0,1.4943909E1,8.6575775E0,5.062934E0,1.5294032E0,9.830111E0,0E0,0E0,0E0,7.779789E-1,4.060712E0,1.2604523E-1,1.7993298E0,1.7440349E0,3.4021916E0,3.6369655E0,1.5758953E0,1.2092049E1,2.6721835E0,2.4513278E0,5.4460225E0,3.5040278E0,0E0,0E0,0E0,4.4506354E0,8.965192E0,2.912464E-1,0E0,0E0,1.7584075E0,2.2657776E-1,0E0,0E0,0E0,0E0,3.584882E-1,9.873009E-2,0E0,4.0304413E0,4.7367054E-1,0E0,0E0,1.0713715E1,9.017394E0,0E0,0E0,9.6062946E-1,0E0,1.9957542E-2,0E0,8.0251384E-1,1.338604E0,3.3088238E0,5.3252077E0,6.270504E0,0E0,0E0,0E0,0E0,2.1217225E0,0E0,2.665142E0,0E0,0E0,0E0,0E0,4.0627675E0,0E0,0E0,0E0,0E0,0E0,0E0,0E0,0E0,0E0,0E0,0E0,0E0,0E0,0E0,0E0,0E0,0E0,0E0,0E0,0E0,0E0,0E0,0E0,0E0,0E0,0E0,0E0],"parents":[2147483647,0,0,1,1,2,2,3,3,4,4,5,5,6,6,7,7,8,8,9,9,10,10,11,11,12,12,13,13,14,14,15,15,16,16,17,17,18,18,19,19,23,23,24,24,25,25,26,26,27,27,28,28,29,29,30,30,31,31,32,32,33,33,34,34,35,35,39,39,40,40,41,41,44,44,45,45,50,50,51,51,53,53,54,54,57,57,58,58,61,61,63,63,65,65,66,66,67,67,68,68,69,69,74,74,76,76,81,81],"right_children":[2,4,6,8,10,12,14,16,18,20,22,24,26,28,30,32,34,36,38,40,-1,-1,-1,42,44,46,48,50,52,54,56,58,60,62,64,66,-1,-1,-1,68,70,72,-1,-1,74,76,-1,-1,-1,-1,78,80,-1,82,84,-1,-1,86,88,-1,-1,90,-1,92,-1,94,96,98,100,102,-1,-1,-1,-1,104,-1,106,-1,-1,-1,-1,108,-1,-1,-1,-1,-1,-1,-1,-1,-1,-1,-1,-1,-1,-1,-1,-1,-1,-1,-1,-1,-1,-1,-1,-1,-1,-1,-1],"split_conditions":[1E0,1E0,9.784098E-1,1E0,3.4456158E-1,1E0,2E0,3E0,2.8639464E-3,7.592254E-3,-9.7851676E-1,2E0,2.650855E-3,1.424812E-2,2E0,5.13436E-1,-9.17703E-1,2.538385E-3,1E0,1E0,1.2118795E-1,3.3049718E-3,-1.0615005E-1,2.563365E-1,-2.5826514E-2,4.518999E-3,2.6096933E-2,1E0,1E0,8.78199E-3,2.8639464E-3,1E0,2E0,2.852493E-1,1E0,-1.1482391E0,4.955597E-2,7.904004E-2,4.5193918E-4,-5.404703E-1,2.8176461E-3,-4.989277E-1,-1.1812886E-2,-6.742222E-2,1E0,1.6745289E-1,-3.1678252E-2,-6.0146082E-2,1.51256835E-2,-4.9336586E-2,1.7545655E0,7E-1,-1.6894361E-2,1.5522629E-1,2.076603E0,-9.733425E-2,-1.1104106E-2,5.2044463E-1,-1.372744E-1,-9.661385E-2,2.140546E-3,1E0,-2.5337402E-2,3.6842594E-1,2.617772E-2,1E0,1.0145296E0,3E0,1.0781176E0,-9.985104E-1,5.3007204E-2,-1.5315296E-2,-8.494546E-2,4.5673218E-2,3.2816467E-1,-1.02648415E-1,2.0718995E-1,-8.19635E-3,2.2812452E-2,8.7694846E-2,2.1713147E-2,1.7113334E0,-8.0127575E-2,-0E0,4.4965487E-2,6.782203E-2,-4.286974E-2,4.55037E-2,-1.5363245E-2,5.048826E-2,2.1484275E-3,-8.076279E-2,-2.6342949E-2,-5.159609E-3,3.733511E-2,-5.132063E-2,-1.085637E-3,4.2944703E-2,-2.7725496E-3,-4.2783745E-2,2.7673928E-2,1.6540043E-2,-6.318816E-2,3.1009493E-2,-4.0356018E-2,-7.329142E-2,8.7776175E-3,3.6018487E-2,-4.3063536E-2],"split_indices":[14,11,17,3,67,8,9,16,110,67,18,16,87,19,14,27,18,104,0,0,0,0,0,110,4,80,18,8,3,102,110,1,6,102,13,4,0,0,0,4,58,17,0,0,5,17,0,0,0,0,18,19,0,19,18,0,0,106,4,0,0,20,0,19,0,6,17,16,17,18,0,0,0,0,4,0,102,0,0,0,0,18,0,0,0,0,0,0,0,0,0,0,0,0,0,0,0,0,0,0,0,0,0,0,0,0,0,0,0],"split_type":[0,0,0,0,0,0,0,0,0,0,0,0,0,0,0,0,0,0,0,0,0,0,0,0,0,0,0,0,0,0,0,0,0,0,0,0,0,0,0,0,0,0,0,0,0,0,0,0,0,0,0,0,0,0,0,0,0,0,0,0,0,0,0,0,0,0,0,0,0,0,0,0,0,0,0,0,0,0,0,0,0,0,0,0,0,0,0,0,0,0,0,0,0,0,0,0,0,0,0,0,0,0,0,0,0,0,0,0,0],"sum_hessian":[1.0101615E3,7.328115E2,2.7734995E2,5.31949E2,2.0086255E2,1.8827979E2,8.907017E1,4.6643094E2,6.551805E1,1.8182286E2,1.9039682E1,4.698569E1,1.412941E2,2.9810678E1,5.925949E1,4.1447382E2,5.1957138E1,5.6410057E1,9.107997E0,1.724437E2,9.379165E0,3.1787715E0,1.5860911E1,2.6620136E1,2.0365553E1,1.3502547E2,6.268631E0,1.4746468E1,1.5064211E1,3.426492E1,2.4994568E1,4.0693988E2,7.53392E0,2.9309605E1,2.2647532E1,5.0924244E1,5.485813E0,5.320049E0,3.7879481E0,9.7971695E1,7.4472E1,2.2775002E1,3.8451357E0,6.383029E0,1.3982524E1,1.2912993E2,5.8955345E0,3.1488023E0,3.1198287E0,7.4857206E0,7.2607465E0,1.1750372E1,3.313839E0,2.7882076E1,6.3828444E0,2.1163754E1,3.8308158E0,3.0985144E2,9.708844E1,3.8915E0,3.64242E0,2.5572348E1,3.737257E0,1.7120941E1,5.5265923E0,1.1518778E1,3.9405468E1,5.8903168E1,3.9068527E1,6.854827E1,5.9237323E0,3.0590055E0,1.9715996E1,4.655613E0,9.326911E0,9.479115E1,3.4338783E1,3.8160298E0,3.4447167E0,7.5970683E0,4.153304E0,1.8069773E1,9.812304E0,3.28972E0,3.0931244E0,3.0351373E2,6.3376985E0,6.1088406E1,3.600004E1,1.9616041E1,5.956305E0,1.0903352E1,6.2175884E0,7.8310556E0,3.687722E0,3.251424E1,6.891227E0,3.2362007E1,2.6541159E1,2.5889975E1,1.3178552E1,9.761279E0,5.878699E1,3.2934308E0,6.0334797E0,3.1018744E1,3.3200393E0,8.351782E0,9.717992E0],"tree_param":{"num_deleted":"0","num_feature":"129","num_nodes":"109","size_leaf_vector":"1"}},{"base_weights":[-4.7702407E-3,2.1619458E-1,-5.5975866E-1,3.525805E-1,-1.22881874E-1,-2.748549E-1,-8.915565E-1,5.275398E-1,1.32607E-1,-2.0686024E-1,3.5707742E-1,-7.3186886E-1,-4.1337356E-2,-9.3770933E-1,-1.24000065E-1,3.4292287E-1,7.818861E-1,-1.1114548E-2,4.7658706E-1,-2.6645866E-1,4.8989296E-1,7.299203E-1,-5.5170274E-1,-8.107432E-2,-2.7347055E-1,-1.9532727E-1,5.225085E-1,-9.750745E-1,-8.519388E-3,2.7277121E-2,-5.497588E-2,4.9599692E-1,3.5082554E-3,8.174879E-1,-1.2580924E-2,2.1224847E-1,-2.8498858E-1,5.416213E-1,-1.1675901E-2,-3.7303078E-1,2.0125923E-1,1.0521006E-1,-2.7445322E-2,9.5744364E-2,-1.4928038E-2,-6.4758877E-3,-7.57086E-2,8.714593E-3,-6.0133792E-2,-7.215861E-1,-1.9498145E-2,-2.2047298E-2,7.6366425E-1,-3.4598053E-1,-1.0009036E-1,5.428193E-1,-4.060051E-2,1.8935648E-1,-4.1251457E-1,8.496791E-1,6.751316E-3,4.2298308E-1,-1.6602428E-1,-1.3127518E-1,-8.827194E-2,6.486014E-1,1.6736506E-1,-4.4067612E-1,5.325925E-1,9.4216384E-2,-1.16521895E-1,4.912891E-4,-8.438214E-2,1.2874313E-1,-4.706029E-1,1.094605E0,-5.8082715E-3,-4.340557E-2,-3.8630997E-3,5.8226954E-2,-3.497659E-2,5.1199507E-2,-1.100855E-2,-8.523905E-2,3.803474E-2,8.743765E-2,-0E0,5.2172888E-2,-6.1304945E-2,-8.0178685E-2,7.896247E-3,8.5587084E-4,-4.4407114E-2,6.979917E-2,-0E0,4.68938E-2,-2.773416E-3,-5.102193E-2,2.212928E-2,-5.721887E-3,7.9971075E-2,-5.435015E-2,4.8080925E-2,-2.2477325E-2,2.738752E-2,-6.2127825E-2,9.792733E-3,1.24129295E-1,2.4793986E-2],"categories":[],"categories_nodes":[],"categories_segments":[],"categories_sizes":[],"default_left":[0,0,0,0,0,0,0,0,0,0,0,0,0,0,0,0,0,0,0,0,0,0,0,0,0,0,0,0,0,0,0,0,0,0,0,0,0,0,0,0,0,0,0,0,0,0,0,0,0,0,0,0,0,0,0,0,0,0,0,0,0,0,0,0,0,0,0,0,0,0,0,0,0,0,0,0,0,0,0,0,0,0,0,0,0,0,0,0,0,0,0,0,0,0,0,0,0,0,0,0,0,0,0,0,0,0,0,0,0],"id":13,"left_children":[1,3,5,7,9,11,13,15,17,19,21,23,25,27,29,31,33,35,37,39,41,43,45,-1,47,49,51,53,-1,-1,-1,55,57,59,-1,61,63,65,-1,67,69,-1,-1,-1,-1,-1,-1,-1,-1,71,73,-1,75,77,-1,79,-1,81,83,85,-1,87,89,91,-1,93,95,97,99,-1,101,-1,-1,103,105,107,-1,-1,-1,-1,-1,-1,-1,-1,-1,-1,-1,-1,-1,-1,-1,-1,-1,-1,-1,-1,-1,-1,-1,-1,-1,-1,-1,-1,-1,-1,-1,-1,-1],"loss_changes":[1.21601906E2,3.298204E1,2.559961E1,1.9160442E1,8.588299E0,1.6651562E1,3.9816513E0,1.1996017E1,1.1444735E1,7.896918E0,1.2465809E1,9.21299E-1,9.82911E0,3.4001846E0,2.658424E0,8.775568E0,4.1873245E0,1.0404992E1,2.9237938E0,8.632801E0,7.813307E0,5.549327E0,8.7228894E-1,0E0,1.9167981E0,8.0654335E0,5.0827613E0,3.4789276E-1,0E0,0E0,0E0,5.833641E0,4.7026753E0,2.359024E0,0E0,7.762501E0,6.4624114E0,1.9764156E0,0E0,9.34934E0,8.381202E0,0E0,0E0,0E0,0E0,0E0,0E0,0E0,0E0,2.0478086E0,5.000707E0,0E0,5.619522E0,1.7798865E-1,0E0,4.8160934E0,0E0,4.357711E0,7.871026E0,2.170578E0,0E0,7.5481596E0,5.958579E0,2.9311614E0,0E0,1.5377674E0,1.2397212E0,6.473364E0,2.0314293E0,0E0,7.8936687E0,0E0,0E0,3.1317787E0,1.8804011E0,3.688259E-1,0E0,0E0,0E0,0E0,0E0,0E0,0E0,0E0,0E0,0E0,0E0,0E0,0E0,0E0,0E0,0E0,0E0,0E0,0E0,0E0,0E0,0E0,0E0,0E0,0E0,0E0,0E0,0E0,0E0,0E0,0E0,0E0,0E0],"parents":[2147483647,0,0,1,1,2,2,3,3,4,4,5,5,6,6,7,7,8,8,9,9,10,10,11,11,12,12,13,13,14,14,15,15,16,16,17,17,18,18,19,19,20,20,21,21,22,22,24,24,25,25,26,26,27,27,31,31,32,32,33,33,35,35,36,36,37,37,39,39,40,40,49,49,50,50,52,52,53,53,55,55,57,57,58,58,59,59,61,61,62,62,63,63,65,65,66,66,67,67,68,